sequential/dense/kernel:0
(784, 128)
[[-6.41352981e-02 -8.65326822e-03  1.36946514e-02  1.53884292e-02
   6.94125891e-04 -2.78970450e-02 -3.06756683e-02  1.96559280e-02
   4.31280583e-03 -6.06579632e-02 -1.06785521e-02  2.68474221e-04
  -1.40618458e-02 -7.76388273e-02  2.85580307e-02 -1.72253773e-02
   1.05853230e-02  7.67195746e-02 -3.87255438e-02 -1.50652155e-02
  -3.54692265e-02  8.09264407e-02 -6.00453615e-02 -4.09712419e-02
   7.39149526e-02 -4.43142541e-02  4.27604243e-02  6.83485940e-02
   7.44940862e-02  7.75682256e-02 -8.26267898e-03  6.70757368e-02
  -2.99389549e-02  4.68970835e-03  8.02332982e-02 -9.43304598e-03
   2.72065327e-02  5.15429750e-02 -2.21429914e-02  6.78717420e-02
   6.42681643e-02  5.07356301e-02  3.55520323e-02  1.98755562e-02
  -7.01376945e-02 -6.64448738e-02 -6.62955195e-02 -5.24229780e-02
   2.02450901e-02 -1.99823044e-02 -3.35078686e-03  7.62793198e-02
  -5.68592809e-02 -2.16017514e-02 -4.63219211e-02 -1.02966204e-02
   6.60415962e-02  5.90902641e-02 -2.49941722e-02  7.08962902e-02
  -7.74625167e-02  5.09840026e-02  1.18270516e-04  5.71746901e-02
  -8.62047076e-04  3.55011150e-02 -4.18644994e-02 -1.91008449e-02
  -2.08979920e-02 -3.91153283e-02 -5.68234846e-02  5.84123656e-02
  -3.60384695e-02  1.04818642e-02 -5.83461821e-02 -8.09198022e-02
  -5.35377711e-02  1.51873305e-02 -7.63804018e-02 -5.63530028e-02
  -3.98018360e-02 -2.19217613e-02  6.37883916e-02 -1.40184686e-02
  -3.91913466e-02  2.70347893e-02 -4.32069451e-02 -3.77303585e-02
  -3.16907354e-02  7.04055279e-03  3.39318886e-02 -3.35028023e-03
  -6.22140393e-02  7.67366514e-02  1.37401149e-02 -4.46503945e-02
  -3.15603949e-02 -7.37004429e-02  1.85153410e-02 -1.98934637e-02
   1.16999820e-02  6.79191127e-02 -6.01371601e-02 -4.55600694e-02
  -4.99586985e-02 -7.37466440e-02  7.90514052e-04 -4.11099568e-02
  -3.09430398e-02  1.17544010e-02 -3.30415145e-02  7.99447820e-02
  -3.25940289e-02 -2.35126913e-03 -3.99535857e-02  7.51394406e-02
  -2.74404287e-02  1.92067623e-02  5.02413139e-02 -5.77632114e-02
  -8.05436298e-02  5.71450368e-02  2.76150927e-02  3.23148221e-02
  -7.46647120e-02 -2.69665644e-02  5.17622456e-02 -3.36503610e-02]
 [-9.01795179e-03 -6.29697368e-02  1.56770796e-02 -5.88225834e-02
   2.66193599e-03 -1.24403313e-02  4.02551666e-02  2.67105848e-02
   3.30117345e-02 -1.88883357e-02  3.90510485e-02 -3.90388072e-02
  -2.91745327e-02  1.53068230e-02 -7.47612268e-02 -1.76227763e-02
   2.37422884e-02  2.14935839e-03 -4.98831272e-03  5.00115529e-02
   4.88700345e-02  4.51822504e-02 -4.18829098e-02  6.95188269e-02
  -3.04863639e-02  7.14190230e-02  1.60552561e-03  3.61203700e-02
   1.09887868e-03  1.11745596e-02 -6.02199286e-02 -5.93371950e-02
  -3.96781676e-02 -7.10286498e-02  6.40802160e-02 -2.46963426e-02
   4.96418253e-02  7.10460171e-02  3.05897295e-02  5.75333014e-02
  -3.36934291e-02  4.82082143e-02 -1.98330693e-02 -7.59104043e-02
   4.72365841e-02 -6.43307865e-02  6.79257438e-02 -7.14113712e-02
   1.19274855e-03  3.68862599e-02  7.00675473e-02  4.22522128e-02
  -6.43215626e-02 -1.86007917e-02  2.38748342e-02 -2.83787996e-02
   2.60522291e-02  1.70311853e-02  4.73152474e-02 -1.39743760e-02
   3.95209342e-03  1.71384513e-02  3.76746804e-02  7.13546500e-02
   6.36615083e-02  7.62948766e-02 -5.77603132e-02 -1.50895193e-02
  -7.08503276e-02  3.44995856e-02  7.94036016e-02  1.87505335e-02
   6.58757985e-04  4.03093919e-02  4.74747196e-02 -4.66997325e-02
  -5.20992950e-02  2.69480795e-03 -2.65655629e-02  6.01785704e-02
   7.28528202e-03 -2.14045979e-02 -9.12365317e-03  5.65697029e-02
   5.30119017e-02  4.14810032e-02  7.10745379e-02  4.79035750e-02
   5.73024526e-02  2.51904130e-04  8.05354193e-02  5.99875078e-02
  -5.56062907e-03 -6.80233613e-02 -5.38491756e-02 -7.36266896e-02
  -4.59551811e-03  2.82773674e-02 -2.04810575e-02  2.92493701e-02
   6.83754757e-02  1.15165785e-02  3.34654748e-03  2.01720521e-02
   3.14192846e-02 -1.58517808e-02  3.30911353e-02  4.57987860e-02
  -5.56581616e-02  2.46820897e-02  2.85837501e-02  3.76224294e-02
   3.40216383e-02  1.89333335e-02  6.18822947e-02  6.32187054e-02
   6.58662096e-02 -8.01601708e-02 -7.18473345e-02  1.46340281e-02
   5.61296269e-02  3.57674062e-02  3.38166952e-03 -2.52178200e-02
  -4.63816151e-02 -7.02298805e-02  3.63175198e-02 -6.33151010e-02]
 [ 7.98755363e-02  5.95708415e-02 -1.78956240e-02 -2.83476263e-02
   2.34581083e-02  7.89733753e-02  8.21290165e-03 -6.73182830e-02
   1.01832747e-02  7.69448653e-02  3.39128599e-02 -7.45034292e-02
   6.27902970e-02 -8.47638398e-03  4.03850228e-02 -5.97950295e-02
  -4.87549677e-02  4.64713648e-02  3.88455987e-02  6.18441775e-02
   4.57245931e-02  1.19680688e-02 -6.50405809e-02 -6.88028485e-02
   6.95242360e-02 -3.52132656e-02 -4.09907736e-02 -2.80384645e-02
   3.33770514e-02  1.28177181e-02  4.34873477e-02  1.72321647e-02
   6.71203509e-02 -2.08005458e-02  3.95188630e-02 -4.30597402e-02
   4.55162153e-02 -7.07171857e-02  2.96351314e-02  7.52956793e-02
  -2.41067000e-02 -5.84682301e-02  8.86471570e-03  7.87982121e-02
   4.28515226e-02 -1.74578279e-02 -7.26217180e-02 -2.16855817e-02
   5.02820089e-02  6.48117438e-02  7.42479935e-02 -1.68764368e-02
   6.85214326e-02 -2.87416652e-02  5.82711324e-02 -7.80623406e-03
   4.16973755e-02 -7.08202571e-02  2.94441879e-02 -2.82707773e-02
   5.30277714e-02  4.36181948e-02  2.92393193e-02  6.39233515e-02
  -4.55836989e-02 -1.61682516e-02  5.26935086e-02 -3.75320055e-02
   1.48507729e-02  6.98916540e-02  8.06751102e-03 -1.03337690e-02
  -6.06260337e-02 -6.21896908e-02 -3.84062119e-02 -6.97406009e-02
  -7.02084899e-02 -5.57592995e-02  5.01856133e-02 -3.83026935e-02
  -6.74330220e-02 -3.58805917e-02 -8.02295357e-02 -4.80053388e-02
   1.82979926e-02 -2.10469961e-03  5.84346727e-02 -6.13593012e-02
   4.75995764e-02  4.69897315e-02  2.94346362e-03  7.76633993e-02
  -7.63077885e-02  1.41987205e-02 -4.83723767e-02 -9.87411290e-03
  -4.91123386e-02  4.86199930e-02  8.89770687e-03  8.06587562e-02
   1.80730894e-02 -4.50444296e-02  5.29564694e-02  6.93210214e-03
   1.26080140e-02  3.12907025e-02  7.12600723e-02 -4.80229557e-02
  -1.74385086e-02  5.73329553e-02  6.33250177e-03 -6.97007850e-02
   6.87540397e-02 -2.62473524e-02  6.20626733e-02  7.73381367e-02
   1.29338801e-02  1.84223577e-02  7.63988569e-02 -7.54448548e-02
  -7.83169791e-02  9.31593776e-03  3.67897227e-02  5.19700721e-02
   2.52691656e-02 -7.42027164e-02  4.97329310e-02 -7.33370781e-02]
 [ 6.92963824e-02  9.40147042e-03 -7.19248056e-02  4.08139676e-02
  -5.65653965e-02 -6.17300794e-02 -4.51044179e-02  2.81702951e-02
  -7.20001459e-02 -3.81491296e-02  6.71595559e-02 -3.47975120e-02
  -2.86231004e-02 -7.55360574e-02  4.18482721e-02 -3.36391479e-03
   2.82639712e-02  2.52721235e-02  5.14145270e-02 -2.49977484e-02
  -3.13264206e-02  5.96296787e-03  3.66451666e-02  3.12792957e-02
  -7.05221966e-02 -1.97735839e-02 -5.73778972e-02  2.63026953e-02
  -2.82954723e-02  6.06648400e-02  2.15699747e-02  5.02033159e-02
  -6.96527064e-02  2.70966291e-02 -1.17613226e-02  1.83013976e-02
   6.24071136e-02  4.28893119e-02 -2.88233310e-02 -4.05502878e-02
   2.13394240e-02 -5.99869043e-02 -5.14216609e-02  6.94817230e-02
   5.93912378e-02  7.66230002e-02  5.57298288e-02  1.75440758e-02
   3.04172486e-02  6.28370717e-02 -3.15775685e-02 -7.78930858e-02
  -5.03681600e-03  4.47857603e-02  1.60601884e-02 -6.36264533e-02
   4.16936278e-02  6.11447766e-02 -1.19160637e-02 -5.96877784e-02
   5.97321168e-02 -4.51535732e-03 -8.07238072e-02 -6.43361658e-02
   6.47823140e-02  7.42568895e-02 -6.89179897e-02 -3.10924649e-02
   5.45803085e-02 -3.42686065e-02  5.87161407e-02  7.46569559e-02
  -4.03142832e-02  5.67452088e-02 -7.19281510e-02  3.23600173e-02
   1.03812218e-02  2.16233134e-02  6.27928451e-02 -4.37129103e-02
   4.07695249e-02  4.28858325e-02 -2.28013247e-02  2.36180425e-02
  -7.80497864e-02  2.02537328e-02 -7.92097151e-02 -5.19580692e-02
  -1.66624784e-02  6.62328079e-02  7.75322840e-02 -3.15635093e-02
  -1.56434700e-02  3.80964279e-02  1.55703872e-02 -2.59418264e-02
   1.62386000e-02 -7.14761168e-02  3.83807793e-02 -3.61474790e-02
   4.22423854e-02  8.67179781e-03  1.12868920e-02  5.21317795e-02
  -1.66437179e-02  4.31777537e-03 -4.69401851e-02 -4.64736484e-02
  -9.10237432e-04  8.10912997e-03 -7.72576109e-02  7.20204487e-02
   3.41563299e-02  5.25004640e-02  1.45728588e-02  2.23006010e-02
  -6.43873140e-02  1.00681558e-02  6.91811815e-02 -3.63280587e-02
   3.66138816e-02  3.45053449e-02 -3.12936418e-02 -1.67021006e-02
   1.97880119e-02 -3.14806812e-02 -1.41330287e-02  2.89353952e-02]
 [-6.65819198e-02 -2.00992823e-03 -6.49219975e-02 -7.56319389e-02
   5.70918098e-02 -7.33185709e-02 -7.03594238e-02  3.62299010e-02
   2.53614038e-03  2.62144580e-02  3.72444838e-02 -5.74293733e-02
   1.73627734e-02 -1.94672681e-02 -4.60053980e-03  4.30227667e-02
  -4.37993333e-02  5.04012927e-02  1.31043643e-02  6.43017888e-03
  -1.02197677e-02  4.20345962e-02  7.65842572e-02 -6.46300465e-02
  -4.08461690e-03 -1.75779536e-02 -5.10007218e-02  1.27219930e-02
  -1.22106299e-02  6.68995753e-02  6.47430941e-02  4.31265384e-02
   5.18480912e-02  2.54654661e-02  1.50248110e-02 -6.42430112e-02
   3.22652757e-02 -7.66969919e-02  7.14700297e-02  2.91261449e-02
   8.87900591e-03 -4.76086140e-02  1.07463896e-02  6.54752478e-02
  -3.31312083e-02  6.57229647e-02 -6.60328269e-02  5.19833788e-02
   1.72589868e-02 -4.80107702e-02 -7.12397844e-02 -3.03669497e-02
  -3.29556167e-02 -3.53590958e-02  1.97708756e-02 -9.26492363e-03
   7.24282786e-02 -4.68470305e-02 -3.20021808e-03 -3.71728353e-02
  -4.89104651e-02  3.78382653e-02 -1.48755014e-02 -7.20645785e-02
  -6.71222135e-02  4.52183411e-02  5.61765060e-02  5.01546189e-02
  -3.29810642e-02  3.50017026e-02  1.48010105e-02  7.41689131e-02
   3.62314656e-02 -7.66762644e-02 -6.59520552e-02  4.46991101e-02
  -7.08980337e-02 -7.51075745e-02 -3.05048712e-02  6.70821890e-02
   2.44380608e-02  5.45051768e-02 -3.58239301e-02 -6.19856901e-02
   3.28006595e-02  7.58794621e-02  2.92256847e-02 -5.98119125e-02
  -6.50542900e-02 -2.04593986e-02 -2.79839300e-02  2.03456506e-02
  -1.32871345e-02  5.26387021e-02  6.90757707e-02  6.23054728e-02
   4.96037304e-03  3.62168252e-02  6.70660287e-03  2.32207701e-02
  -2.28179991e-03  5.12646660e-02 -7.69417211e-02  4.07009721e-02
   4.17576134e-02  4.13277075e-02 -5.31064123e-02  3.02448869e-03
   2.24753767e-02 -2.45818794e-02  4.14715260e-02  6.03091046e-02
  -6.52821958e-02 -4.87041660e-02 -7.87451491e-02 -6.87301531e-02
  -5.21664321e-03 -7.31669217e-02 -5.10338694e-02  6.41561300e-03
   2.60788947e-03 -2.11876407e-02 -5.17771766e-02  2.43129432e-02
  -2.34426595e-02 -6.35616034e-02 -2.93736197e-02 -7.57692009e-03]
 [-1.87860169e-02  2.07029879e-02 -9.63333249e-03 -4.05601412e-03
  -3.96470912e-02  2.36057416e-02  6.65403903e-03 -5.52537963e-02
   7.62499943e-02 -6.17237315e-02 -2.57007368e-02 -5.90776354e-02
   7.82050565e-02  4.11735624e-02 -3.09903622e-02  2.20844150e-02
  -6.04000278e-02  2.71470249e-02  1.30741224e-02 -2.68479809e-02
   3.33173349e-02  1.42857805e-02 -7.54043609e-02  2.10184082e-02
  -7.91377202e-02 -3.49335559e-02 -7.36903101e-02  8.20514560e-03
   7.51897916e-02 -4.35023569e-02 -5.83488718e-02  5.69271371e-02
   4.20765802e-02  2.62307823e-02  5.58469370e-02 -2.28117108e-02
   1.04136169e-02 -1.11855268e-02  1.65620372e-02 -1.58399343e-05
  -3.67022753e-02 -6.47658631e-02  7.59858415e-02 -2.05566511e-02
  -4.61927205e-02 -5.83233833e-02  5.82218990e-02  1.84386224e-02
   6.60888180e-02  3.76437977e-02  1.88051611e-02 -1.69814080e-02
  -2.16729343e-02  1.28622875e-02  5.68176433e-02 -6.76380098e-03
  -1.84395164e-02 -4.62678671e-02  2.13822648e-02 -6.30714223e-02
   5.33490106e-02  2.13614553e-02  1.82371363e-02 -4.42957506e-02
  -4.53765690e-03  5.17186597e-02  3.86813581e-02  2.32247263e-03
  -7.88478926e-02 -2.78201178e-02 -2.07903534e-02  4.46733460e-02
   2.21606120e-02 -8.05165768e-02 -4.56893630e-02 -4.72836122e-02
  -5.27539104e-03 -5.77129498e-02  2.39302963e-02 -5.09506762e-02
   4.10988927e-03  5.47619909e-03  3.04358378e-02  3.05560827e-02
   5.29209152e-02 -2.11338215e-02 -6.77578598e-02  1.28548071e-02
  -4.80486751e-02  5.14338240e-02  3.44895869e-02  3.52133065e-02
   2.70403773e-02 -6.59857616e-02  6.61955103e-02  4.23849523e-02
   2.37141475e-02 -1.01654679e-02  3.15101147e-02 -6.75467104e-02
   6.57424405e-02 -1.00967288e-03  5.27664497e-02  7.20382258e-02
  -4.25575823e-02  7.73328915e-02  5.66754714e-02 -5.68526872e-02
   2.20950693e-02  2.29327902e-02 -3.76685150e-02  3.62976566e-02
   6.87089339e-02  1.19945407e-02 -6.29767030e-03  3.12797576e-02
  -5.08332923e-02  5.06989658e-04 -6.46061450e-03 -5.93647510e-02
   5.02562448e-02  1.23961419e-02 -1.42348632e-02 -3.58976685e-02
  -5.75378984e-02 -1.75296441e-02  5.55037186e-02 -7.33947456e-02]
 [-5.93666881e-02 -6.57929033e-02 -7.42504820e-02  6.16683140e-02
  -6.23834431e-02 -7.60659054e-02  7.48509392e-02  3.23825255e-02
   5.21726385e-02  5.80252782e-02 -4.90520224e-02 -3.85231301e-02
  -1.12577155e-02  4.02782932e-02 -8.17205757e-03 -4.40458953e-03
  -2.66931392e-02 -2.75166593e-02  4.30338830e-02  1.00340992e-02
   5.79767302e-02 -5.67987710e-02  3.97738367e-02  1.02445632e-02
  -1.18484050e-02  5.10167107e-02 -9.33432579e-03 -7.43905455e-03
  -1.69555917e-02  6.95744678e-02  2.67859399e-02  1.13661215e-02
   7.46374056e-02 -1.09522864e-02  7.55944774e-02  6.12664446e-02
  -3.56421322e-02  3.56064290e-02  4.51854616e-03  8.10667947e-02
   4.94882688e-02 -6.12733066e-02 -4.91237491e-02 -3.50865424e-02
   2.04606578e-02 -5.43069839e-03 -6.61262721e-02  1.91065297e-02
  -3.69976498e-02 -3.88998799e-02 -1.27516389e-02 -3.55178416e-02
   7.65900388e-02 -4.12585139e-02 -7.46053830e-02 -7.87563846e-02
  -2.68263035e-02 -6.88776374e-03 -2.12585926e-03 -1.08158365e-02
  -4.67706248e-02 -3.38193029e-02  2.10449249e-02  6.35629222e-02
   2.78834701e-02 -7.67263472e-02  4.60134521e-02  2.65619457e-02
  -6.95476457e-02 -3.04052792e-02 -7.46340007e-02 -4.38830890e-02
   7.74968192e-02 -3.49153578e-02 -1.99654028e-02 -3.35686393e-02
  -4.38299663e-02  4.75325361e-02  5.41135892e-02 -6.13527671e-02
  -5.04417717e-02  6.66663721e-02 -2.42917985e-03  7.47747049e-02
  -2.68235803e-03 -7.88568854e-02  1.04450956e-02 -5.76729774e-02
  -6.01200685e-02  3.73333842e-02  5.00887260e-02  1.82670355e-02
   3.84107232e-03 -5.44387624e-02 -6.67244792e-02 -5.03007360e-02
   5.87402955e-02 -6.66197836e-02  1.51921883e-02  5.73051795e-02
   3.59030589e-02 -1.82431713e-02  1.89611837e-02  5.78230396e-02
   2.14012340e-02 -2.81841606e-02 -7.75682777e-02 -5.21915406e-03
  -9.67261195e-03 -7.60222375e-02  2.92488709e-02  4.23052981e-02
  -6.90809935e-02 -5.57748079e-02  2.88491622e-02 -2.15851776e-02
   1.81188434e-02 -6.54639900e-02  3.27093229e-02  5.10449186e-02
   2.93101147e-02 -5.17911762e-02 -4.83647771e-02  3.04439738e-02
   1.39190331e-02 -2.10961141e-02  5.66426888e-02  2.94601768e-02]
 [-1.23329461e-02  2.01448798e-03 -5.31112105e-02 -5.81389144e-02
  -3.14266905e-02  7.57415220e-02 -2.45654620e-02 -4.05116305e-02
  -1.93762593e-02 -2.55986676e-02 -1.98029801e-02  4.77569029e-02
   2.78870240e-02  7.82485083e-02 -3.95344645e-02 -7.44108930e-02
  -2.69297808e-02 -1.33605599e-02  6.62752017e-02  7.16903433e-02
   1.39324889e-02  7.67283142e-04  5.00593111e-02 -7.55717158e-02
  -6.62578344e-02  7.72014335e-02 -1.92998536e-02 -2.22438797e-02
   7.42393807e-02  5.15081733e-03  2.72998363e-02  3.80514488e-02
   4.40334901e-02  4.11015674e-02  4.85283062e-02  6.30248412e-02
  -4.75584678e-02  2.91568786e-02  4.29394171e-02 -3.04144062e-02
   1.15169659e-02  3.20054293e-02  4.88295332e-02  2.31845155e-02
  -6.69091940e-03 -7.33546168e-03 -6.56188577e-02  7.76042715e-02
   1.59519315e-02  1.57639608e-02  2.16092765e-02  2.11776644e-02
   5.97257242e-02 -2.48352513e-02  3.62889543e-02 -1.07343048e-02
  -5.43406010e-02 -2.67363340e-03 -6.21180013e-02  3.66065130e-02
   1.48094445e-02  3.06882784e-02 -2.27943249e-02  2.74363086e-02
  -1.94787532e-02  6.07087091e-02 -5.87243661e-02  4.57002893e-02
  -6.02965876e-02  4.93972376e-02 -5.72133064e-02 -5.51739857e-02
   7.63751045e-02 -4.29699346e-02  4.11133021e-02 -6.34595752e-03
   4.36762497e-02  2.45493725e-02  7.25608543e-02  2.28975937e-02
   5.06491214e-03  1.17581710e-02 -3.99093181e-02 -6.88089952e-02
   3.17897871e-02  2.32599750e-02 -5.81565350e-02  2.08648294e-03
  -5.94705902e-02 -3.58353592e-02 -7.09427148e-03  3.09125781e-02
   6.34942576e-02  2.39350721e-02  6.71548918e-02  2.08526850e-04
  -1.18817836e-02 -2.74987146e-02 -5.93946874e-02 -7.35034049e-02
   3.46942022e-02  6.63100928e-03 -4.36118878e-02  5.58952019e-02
   3.69750410e-02 -4.81464677e-02  6.40796199e-02  4.04681191e-02
   2.47949287e-02 -3.48724462e-02 -5.53588606e-02 -2.18873397e-02
  -2.91988812e-02 -4.52940688e-02 -1.52125508e-02 -5.48846647e-02
  -5.80426492e-02  7.56486580e-02  5.24027646e-03  6.34764135e-03
  -2.27546021e-02  2.69004852e-02  7.04447851e-02 -7.10316449e-02
   6.72627613e-02 -5.78873046e-02 -5.68556078e-02  2.91352794e-02]
 [ 1.12424791e-03  7.33681768e-03  4.34122980e-02 -3.72951478e-02
  -1.39447898e-02  1.76894367e-02 -1.94663964e-02  2.32197344e-04
   2.81964019e-02 -8.09097663e-02 -4.42051888e-02  2.40243971e-02
  -8.03413317e-02  6.33390620e-02 -2.07361504e-02 -4.69256416e-02
  -5.55241480e-02 -2.87824087e-02  6.58239201e-02 -3.75685096e-03
   2.52114981e-02  7.74664506e-02 -4.85393405e-03 -2.96003632e-02
  -5.53868264e-02  7.63529912e-02 -6.92351907e-03 -5.71788475e-02
   3.22048217e-02 -5.71339801e-02 -4.30347174e-02 -6.59579039e-03
  -1.85543820e-02  2.80521736e-02 -4.78083752e-02 -4.47841361e-02
   2.26659179e-02 -2.88332105e-02 -6.70275688e-02 -1.63242891e-02
  -3.45591083e-02 -5.09546772e-02  7.77903423e-02 -1.84301734e-02
  -3.15381959e-02  8.04616585e-02 -7.10638836e-02 -5.62457144e-02
  -4.47529852e-02  5.60919419e-02  5.98032773e-03  5.84074929e-02
   7.99192414e-02  2.15947330e-02 -6.18693717e-02  4.37369719e-02
  -4.13998961e-02  2.92007923e-02  3.58640775e-02 -2.49653310e-03
   4.00173441e-02 -6.23597130e-02 -3.71127687e-02  7.52899796e-03
  -7.62755498e-02 -3.03819962e-02 -6.63081855e-02 -5.20661287e-02
   2.42388546e-02  5.75470701e-02  7.76258335e-02 -4.53613661e-02
  -1.00413710e-02 -2.90840119e-02  3.68522033e-02 -7.78477564e-02
  -3.86437625e-02 -4.50243801e-03  3.34690288e-02 -3.59675735e-02
  -5.30414358e-02  7.04305544e-02 -7.74187595e-02 -4.27831858e-02
  -4.12631370e-02 -6.98017478e-02  5.15358672e-02 -5.73166534e-02
  -6.38104230e-03 -5.19196615e-02 -5.82079925e-02 -7.74631351e-02
   5.96377179e-02  5.46919778e-02 -4.51095030e-02 -6.12487495e-02
  -2.69195698e-02  1.61257833e-02  2.92761549e-02  2.35041156e-02
   6.76650181e-02  2.79231146e-02  4.18772548e-03 -3.31814475e-02
   7.14114830e-02 -4.18518893e-02 -7.77428821e-02  6.30263016e-02
  -6.53750598e-02  5.25623932e-02  1.99058652e-03  6.04434386e-02
   5.88860884e-02 -5.00012636e-02  4.17553335e-02  1.82852522e-02
   7.94272944e-02  6.38738796e-02  4.44825515e-02  5.82372770e-02
  -2.77780965e-02 -7.08817169e-02 -1.76307634e-02  3.50053608e-02
   3.00824270e-02  5.44124320e-02  6.37270510e-03 -6.28796443e-02]
 [-5.12988232e-02  6.40247390e-02  6.10069260e-02 -7.35549256e-02
   2.59568542e-02 -3.80581208e-02  3.17795202e-02  6.21625260e-02
   7.66559616e-02  4.01736051e-03  5.21558449e-02  2.77968720e-02
   4.97304276e-02 -8.04831013e-02 -2.44918801e-02 -2.18132138e-02
   1.98327452e-02  6.62152544e-02  7.00745955e-02  7.29804561e-02
   4.32656556e-02  2.45843381e-02  3.20968777e-02 -2.19790414e-02
  -3.59259024e-02  6.45755008e-02  6.51345327e-02 -6.44876808e-02
  -2.05501541e-02  7.69534931e-02  7.45093450e-02  4.57920656e-02
   6.11312017e-02  7.98788443e-02 -3.92638892e-03  7.63927028e-02
  -1.36179551e-02 -5.26794046e-02 -6.77258223e-02 -5.41669279e-02
  -5.01081273e-02 -3.55430022e-02  2.69061327e-03 -2.75197923e-02
  -3.90122533e-02  7.59219378e-03  4.31921929e-02 -4.76290323e-02
  -8.04970637e-02 -4.95505333e-03 -5.55884093e-02 -5.29350378e-02
  -2.24075764e-02  1.69857591e-02 -9.70485061e-03  3.74054164e-02
   5.17962798e-02  1.32796168e-03  8.02199319e-02 -2.59190798e-04
  -4.41079922e-02 -2.69299746e-02  3.54319066e-02  1.55923739e-02
   1.95553303e-02 -7.81677514e-02  2.49278247e-02 -2.30230391e-03
  -2.48405673e-02  3.68732288e-02 -5.07712364e-02 -7.27153718e-02
   5.06537631e-02  8.58087093e-03 -6.05782494e-02 -7.46254772e-02
  -6.63770512e-02  6.01233318e-02 -7.33928680e-02  7.97998086e-02
   5.21068200e-02 -6.35478944e-02  4.40560505e-02 -4.59124893e-02
  -7.01409429e-02  5.30134514e-02 -2.74229869e-02 -1.36761218e-02
  -4.67430316e-02 -1.57597661e-03  8.50769132e-03 -1.50857270e-02
  -6.86715245e-02 -1.31111741e-02 -4.59461585e-02 -4.24038060e-02
   6.28291816e-03  4.99873385e-02  3.73159796e-02  3.30425426e-02
  -6.47153705e-02 -7.40032867e-02  3.58620062e-02 -2.06072032e-02
   1.52090862e-02 -2.77451985e-02  6.39620200e-02 -2.20872983e-02
   3.14865634e-02 -7.57089779e-02 -2.08114833e-03 -6.58395216e-02
   2.95281708e-02 -8.47212970e-03  9.94002074e-03  7.56720975e-02
   1.61403418e-03 -7.89184570e-02  5.42038307e-02  3.94267291e-02
  -3.60470153e-02  1.05738565e-02 -3.83194536e-03 -6.22046962e-02
   1.61049739e-02  2.65697613e-02  5.75336590e-02  4.37670797e-02]
 [-4.49422859e-02 -4.85910960e-02 -1.57878101e-02  3.31909657e-02
   7.08403364e-02  4.24482673e-02  3.15618664e-02  4.12420183e-02
  -4.78637032e-02  4.81169671e-03  3.16790193e-02 -4.88118790e-02
  -5.17827868e-02  1.40247345e-02 -7.84513801e-02 -7.46712834e-02
  -2.34820731e-02  5.55922613e-02 -3.90111916e-02  4.76793200e-03
   1.47032738e-02 -3.42684537e-02  3.38968262e-02  8.25383514e-03
  -1.33846924e-02  2.53263041e-02 -3.44972312e-03  1.62855908e-02
  -1.87577829e-02  4.02886048e-02  4.57760766e-02  4.38735336e-02
  -6.11493886e-02 -1.60773396e-02  7.99495354e-02 -1.29466802e-02
   5.71546182e-02 -4.26272005e-02  4.77146432e-02  1.05298385e-02
  -7.80289397e-02  2.42179558e-02  3.97884771e-02  7.15345815e-02
  -2.37403736e-02  7.13265464e-02 -7.53760114e-02 -8.81925225e-03
   9.37826931e-04  1.25747845e-02 -7.52357915e-02  5.40026054e-02
   4.71420512e-02 -2.08806247e-02  9.25613940e-03 -7.61094168e-02
  -5.74335903e-02 -2.16623768e-02  7.41106644e-02 -3.83987650e-02
  -6.76858127e-02  5.91966510e-03  5.30856773e-02  4.37179953e-02
  -1.96436904e-02  5.31411394e-02 -4.21198606e-02  2.72913724e-02
  -5.26395664e-02  2.71116421e-02  6.44179508e-02 -1.56252459e-02
  -5.27475141e-02  6.78305104e-02 -7.51741230e-02 -3.00290734e-02
   1.78396776e-02  1.78067461e-02  6.18115813e-03 -3.13575156e-02
  -1.23167336e-02 -1.75748765e-02  4.90400121e-02  3.36952880e-02
   3.85329947e-02  2.60875225e-02  5.57337776e-02 -4.26444337e-02
  -5.39906397e-02  8.07786062e-02  2.99849436e-02 -5.69704175e-03
  -4.88501117e-02 -7.83358589e-02 -6.89526200e-02 -1.60783082e-02
  -6.26435131e-03 -1.06834993e-02 -7.65564069e-02  8.44099373e-03
  -4.75510806e-02 -7.35574365e-02  2.17850432e-02  6.65386394e-02
  -3.33502330e-02 -1.11267343e-02 -1.17902532e-02  1.09795481e-02
   3.22680250e-02  1.59787312e-02 -2.78784782e-02 -3.76146361e-02
  -5.57300001e-02  6.26574084e-02 -8.04985538e-02 -1.43178031e-02
   3.19699645e-02 -3.43817770e-02 -1.58162117e-02 -6.94475472e-02
   5.59138283e-02 -1.02782995e-03  5.31749353e-02  7.29501247e-04
   4.28920612e-02  6.11173362e-03 -4.21511494e-02  3.54299471e-02]
 [-1.64925754e-02  6.45920262e-02  1.53477415e-02 -4.30624671e-02
   3.00121307e-02 -6.17513694e-02 -3.22207995e-02  8.04501846e-02
   1.02631226e-02  6.80244043e-02 -5.61267659e-02 -7.60664865e-02
   2.32026353e-02 -2.83957012e-02 -8.04277360e-02 -7.51684383e-02
  -3.00460309e-02  3.31254229e-02  5.04167452e-02 -3.12469900e-04
   1.34575590e-02 -7.16742203e-02 -4.19548154e-03 -8.09821263e-02
   4.31286022e-02  6.71885982e-02 -6.67864978e-02  7.25546256e-02
  -2.86167376e-02  3.23276222e-02 -5.75379580e-02 -1.45549327e-02
  -2.36536600e-02  2.08342895e-02  5.64320013e-02  1.31508559e-02
  -7.98366219e-03 -6.70541078e-02  3.51684019e-02  1.55550539e-02
  -2.90686935e-02 -6.56627715e-02 -3.27163190e-03 -6.49819821e-02
   3.17580104e-02  3.37161869e-02  3.32804993e-02 -6.46428913e-02
  -6.34305477e-02  7.37183020e-02 -2.01963224e-02  6.80651441e-02
   6.51031062e-02 -5.44893518e-02  3.50834504e-02 -7.98773319e-02
  -6.52376190e-02 -4.75538522e-03  4.98860106e-02  7.73578137e-03
  -3.80337350e-02  7.69418553e-02 -3.44979204e-02 -1.12024695e-03
  -4.58520167e-02  1.37938187e-02 -2.37783939e-02  6.02810755e-02
   7.72554502e-02 -2.77617164e-02 -8.04475397e-02  2.30543464e-02
   1.75510347e-02  8.87314975e-03 -3.71478498e-02  9.66700166e-03
   1.33103803e-02  6.55918345e-02  1.65124312e-02 -5.82642853e-02
   1.25157684e-02 -5.19711785e-02  6.08905777e-02 -6.06687143e-02
  -1.03805885e-02 -4.55934070e-02  3.28570604e-05  7.95111805e-03
  -4.36941162e-02 -7.20265582e-02 -2.68706828e-02  1.67276263e-02
   2.73830891e-02  1.31060481e-02 -5.74666187e-02  7.09267929e-02
   7.13694468e-02  2.13806555e-02  2.55163014e-03 -1.20656863e-02
   1.22957006e-02  5.37649021e-02  2.44638398e-02  7.83906952e-02
  -6.00288883e-02 -2.62128711e-02  1.09056830e-02 -2.90128849e-02
  -6.47235066e-02  6.04406968e-02  3.58069316e-02 -5.89980930e-03
   3.88883799e-03 -2.55369022e-02  6.48668036e-02 -7.15633333e-02
   7.06554577e-02  3.25515419e-02  3.54783908e-02 -6.76952302e-02
   7.91864842e-03  3.48793492e-02  3.02631631e-02 -6.72101676e-02
   7.60302618e-02  8.91267508e-03 -4.89673205e-02  4.33465689e-02]
 [-1.59272049e-02 -9.50665623e-02 -7.16444105e-02  7.23989084e-02
   1.08382795e-02  4.56710532e-02  5.80666866e-03 -7.39003271e-02
  -1.66730247e-02  9.24824923e-03  1.02686308e-01  2.46699303e-02
   1.35884196e-01  1.53829567e-02  5.14693931e-02 -6.41968846e-02
  -1.56907067e-02 -2.90612038e-02  4.52905148e-02  3.51020321e-02
  -2.76341531e-02 -8.76363516e-02 -6.96734935e-02  6.09136112e-02
   6.15876392e-02 -3.44053991e-02 -8.34426749e-03  1.16414651e-02
  -6.78200424e-02 -1.06315417e-02  1.13524590e-02 -2.26059631e-02
   8.35603010e-03  7.58178532e-02  3.99365723e-02 -3.60501483e-02
  -9.72533822e-02  3.05597875e-02  5.48955128e-02 -4.63959873e-02
   1.00212358e-01 -7.30512217e-02  1.22295767e-02  4.16428484e-02
   4.19833511e-02 -1.17358649e-02  4.91117015e-02  1.39634758e-01
  -3.61532979e-02  1.08464688e-01  3.30693424e-02  1.47525338e-03
   3.69040444e-02  9.45534483e-02  5.17276004e-02  2.15828642e-02
   5.73093221e-02  8.28772038e-03 -3.44318263e-02  7.47415200e-02
   1.18084185e-01 -1.79938376e-02 -1.48031525e-02  3.77000570e-02
   4.07308154e-02 -3.16550918e-02  1.40784523e-02 -5.91033623e-02
   1.37561727e-02 -1.12642072e-01  8.71525630e-02  3.90766487e-02
   1.78014860e-02  6.11256901e-03 -7.23903105e-02 -1.40126497e-02
  -1.01789407e-01  8.90062079e-02  1.04127690e-01 -4.45252210e-02
   6.05587801e-03 -7.55014177e-03 -8.05748105e-02  7.71431103e-02
   1.89799350e-02  1.60178486e-02 -3.13782878e-02  6.07552007e-02
  -7.43961660e-03  1.13225050e-01 -5.87560125e-02  8.04631710e-02
   8.13113526e-02 -1.26373777e-02 -3.18837687e-02  1.86819918e-02
   9.14076790e-02 -5.93480431e-02  5.42113371e-02  7.13481605e-02
  -6.09238632e-02 -6.37072101e-02  8.97087157e-02  4.10340354e-02
  -7.02804476e-02  1.79972481e-02 -4.15365249e-02 -2.95101176e-03
   5.27216978e-02  7.63095841e-02  8.24961141e-02  6.02535531e-02
  -5.55353006e-03 -7.97869638e-02 -4.48989086e-02 -6.80464208e-02
  -2.16425397e-02 -4.27820422e-02  1.22432657e-01  5.03103659e-02
   1.17923915e-01  1.13081433e-01  1.32339388e-01 -7.69417882e-02
  -5.10859936e-02 -4.07694131e-02 -5.15632220e-02  5.94221354e-02]
 [-9.59339291e-02  3.22535113e-02 -5.36982380e-02  3.93272601e-02
   1.08508259e-01  5.98013178e-02  5.10764383e-02 -6.50367290e-02
  -4.35261708e-03  3.69356498e-02 -3.69497738e-03  2.35597938e-02
   5.41193448e-02 -8.75306129e-02  2.14769244e-02 -1.23180144e-01
  -4.18254361e-02 -6.34440035e-02 -3.81223275e-03  1.03678726e-01
  -9.94863138e-02 -1.89622231e-02  5.08095212e-02  4.22262102e-02
   6.47821650e-02 -4.04219180e-02  3.73181477e-02 -2.29051523e-02
   5.64878024e-02  3.32777873e-02  1.21011645e-01  1.36053339e-02
   1.43271938e-01 -5.39911278e-02  8.51983279e-02  1.75912678e-03
   4.08850275e-02 -9.34624986e-04  8.58728867e-03  5.83991036e-02
   3.50199779e-03  2.68520415e-02  7.14269653e-02  5.32379188e-03
  -8.51385444e-02 -2.48660203e-02 -3.29419225e-02  1.03712328e-01
  -5.80121577e-03  1.10038899e-01  7.52410069e-02 -7.10855843e-03
   3.83052900e-02  6.76683756e-03  2.65842434e-02 -2.22089477e-02
  -4.20013396e-03 -1.79395974e-02 -6.91659003e-02  3.36826593e-03
   1.23373911e-01  1.15592824e-02  3.38322669e-02  6.49959818e-02
   2.18426669e-03  8.61298218e-02  9.92173329e-03 -4.55440655e-02
   5.69820516e-02 -1.03642263e-01  5.33581935e-02  2.41131335e-03
   5.38660772e-02  1.28051028e-01 -1.19605595e-02  7.19700679e-02
  -1.23897523e-01  8.14901292e-02  3.10873110e-02  7.45156184e-02
  -1.88650005e-03  5.60810156e-02 -9.84341502e-02  1.24482557e-01
   7.33441580e-03 -1.52715191e-03 -6.32987767e-02 -8.07205886e-02
  -2.59267539e-02  6.46257699e-02  6.05435707e-02 -1.73153859e-02
   1.06114127e-01  5.79121113e-02 -8.06703568e-02  1.38610795e-01
   5.44584952e-02  1.84907019e-03  1.51453931e-02  4.96801473e-02
  -7.08581433e-02 -8.31705928e-02  5.84225692e-02 -2.34429687e-02
   2.33785957e-02 -3.04872431e-02 -8.85322038e-03 -3.86615321e-02
   6.56506866e-02  7.43180364e-02  7.84052238e-02 -6.37970865e-03
  -4.37544324e-02 -2.24644504e-02 -6.12963922e-02  6.57214895e-02
  -7.52770156e-02 -1.24058984e-01  1.49974868e-01  1.29816830e-02
   8.65893513e-02  6.23422600e-02  9.60316807e-02 -3.27725075e-02
   8.41312576e-03 -1.36621837e-02 -3.87984402e-02  7.53364265e-02]
 [-2.88476218e-02  9.46345180e-03 -4.10089083e-02 -5.88116571e-02
   3.42503525e-02 -3.03499140e-02  4.72722761e-02 -6.38498664e-02
   4.50429469e-02 -7.79410452e-02  7.51766935e-02  3.96503434e-02
  -1.88860074e-02  3.75802331e-02 -7.87838846e-02  9.84222814e-02
   6.18920699e-02  3.44551019e-02  1.13284416e-01 -9.11951512e-02
   9.78111848e-02  1.01223886e-02 -2.86201015e-02  9.45504010e-02
   2.79357396e-02 -1.21010616e-02  2.35815253e-02  2.50123292e-02
  -9.76268053e-02  4.04132083e-02  4.78834435e-02 -8.52115266e-03
  -7.59736961e-03  7.00486377e-02  9.18617696e-02 -7.44244158e-02
   5.92083558e-02 -2.21908782e-02  1.22066364e-02 -8.85577872e-03
   3.38117927e-02  4.84823361e-02 -1.36901438e-02 -1.76028684e-02
   7.96977803e-02  4.00709622e-02  4.77317646e-02 -4.42270562e-02
  -4.14715074e-02  2.40745265e-02 -6.81348816e-02 -3.41840610e-02
   1.65652055e-02 -5.80539517e-02 -2.93880235e-02  5.91085777e-02
   7.92094879e-03 -3.22237760e-02 -4.26846370e-02  2.27511451e-02
   7.16517912e-03 -1.22880470e-02  6.27471656e-02  1.82365552e-02
   1.13834016e-01  1.66832414e-02 -3.75244506e-02 -6.13934100e-02
  -4.80216648e-03  3.68688093e-03  7.03571960e-02 -7.26067498e-02
   9.72032323e-02 -2.76930910e-02  8.25051740e-02  6.51698932e-02
  -9.52792354e-03 -7.38423318e-02  2.02529505e-02  8.28299522e-02
  -4.25831135e-03 -1.60502885e-02  4.36166301e-02  2.66691465e-02
   4.42715287e-02 -6.57054856e-02 -5.96157461e-02  1.85718983e-02
  -4.90873270e-02 -5.92676587e-02 -5.21645136e-02  5.01888320e-02
   4.33624834e-02  5.43094128e-02  7.22326413e-02 -1.02644250e-01
  -6.65664077e-02 -6.02986738e-02 -6.60381466e-02 -5.69431968e-02
  -5.72267100e-02 -9.09711942e-02  1.18902616e-01  7.50349835e-02
  -2.78101191e-02 -5.32142743e-02  7.18469545e-02  7.73347840e-02
   1.93962418e-02  1.32873189e-03  4.01045615e-03  1.58191323e-02
  -2.58523878e-02  1.52468607e-02  1.03666745e-02 -5.36167435e-02
  -1.15385428e-02 -2.67100334e-03  1.32641662e-02 -3.45167965e-02
   5.78626618e-02 -5.59108518e-02 -9.04938057e-02 -3.35033946e-02
  -7.71408528e-02 -4.72492725e-03 -4.08689119e-02  1.08306706e-01]
 [-5.19369245e-02  4.75265831e-03 -3.60362679e-02 -5.17618582e-02
   6.50071874e-02  5.83342090e-02 -6.03428409e-02  8.45973194e-03
   6.22918713e-04 -3.46558392e-02 -3.58645208e-02 -6.80511445e-02
   4.92927060e-02 -5.55891264e-03 -6.89872950e-02 -3.91605012e-02
  -1.37367845e-02 -4.42462675e-02  5.10241371e-03 -3.53366137e-02
   4.58723353e-03 -4.49708439e-02  4.42730263e-03 -4.31047492e-02
   3.20886187e-02 -6.66309986e-03  2.81445193e-03  5.23410812e-02
  -7.15145171e-02 -6.75652921e-02 -3.13927978e-03  7.31244311e-02
   5.28115630e-02  6.88971207e-02  3.95122655e-02 -1.38333440e-02
   7.36064240e-02 -8.26270413e-03  8.30938444e-02 -7.53594795e-03
  -3.39206383e-02  4.86498997e-02 -2.58188359e-02 -5.65240495e-02
   2.52221785e-02 -5.32799885e-02 -3.26046459e-02 -6.37846068e-02
  -1.15508437e-02  2.86962222e-02 -7.73380771e-02  7.96294585e-02
   5.31609431e-02  6.22808225e-02 -4.36030515e-02 -7.71191120e-02
   6.45160154e-02  3.91902849e-02  5.16417101e-02 -7.83388764e-02
   4.11271378e-02  6.72940090e-02 -3.35950106e-02 -3.24304625e-02
  -4.32345346e-02 -3.60717513e-02  2.90149432e-02 -6.55077845e-02
  -1.61428396e-02  5.70092611e-02 -1.61256641e-02 -1.83485448e-04
   4.94103730e-02  1.70685053e-02 -2.66940054e-02 -6.43875301e-02
  -1.09473206e-02 -7.37872571e-02  2.48064641e-02 -2.63038203e-02
   2.52447687e-02 -5.08291125e-02 -2.08546147e-02  7.76898861e-02
   4.49689589e-02 -4.62932289e-02 -2.59380564e-02  6.66792765e-02
   6.79495558e-02  1.82556026e-02  6.88324869e-02 -8.96640122e-04
   4.67204526e-02 -7.48557821e-02 -7.29823411e-02 -4.25877050e-03
   8.00080225e-02 -6.67773932e-02  2.61333361e-02 -3.60402372e-03
   5.42226061e-02  2.10505798e-02  7.90321454e-02  2.11831704e-02
   3.48563567e-02  1.53528806e-02  2.26089023e-02  5.38443513e-02
  -7.19077932e-03  2.46248506e-02 -5.41796628e-03 -2.83845253e-02
   3.85913812e-02 -1.70803815e-03 -3.82621214e-02  3.31950444e-03
  -5.50054759e-02  3.98265049e-02  3.87833118e-02  8.05887058e-02
   5.68140745e-02 -2.24689618e-02  3.46918292e-02  1.07974652e-02
  -2.37581190e-02  4.29246649e-02  7.19527602e-02 -5.73081709e-02]
 [ 1.47151500e-02  7.12453350e-02  9.10528749e-03  8.86581838e-03
  -2.30079144e-03 -2.18814425e-02 -3.99726331e-02  7.83949569e-02
   5.61954901e-02 -5.49712032e-02  2.48373374e-02  4.30881307e-02
  -4.35269363e-02  5.15705869e-02  7.74350986e-02 -8.06318745e-02
   3.24250907e-02  7.83675537e-02 -6.07900247e-02  6.23593703e-02
  -2.17201412e-02 -7.36885518e-02 -1.24781728e-02 -5.40472418e-02
   3.46405581e-02 -4.76211645e-02  1.68856010e-02  3.43603864e-02
  -6.03855029e-02 -5.80812097e-02  3.98160666e-02 -1.50929242e-02
  -2.65201591e-02 -2.30855420e-02 -4.97977287e-02 -6.99256659e-02
  -7.41599053e-02  8.09556469e-02  9.02317464e-03  3.11531499e-02
   1.70917287e-02  5.03051281e-03 -6.34934232e-02 -1.52294934e-02
  -5.66487089e-02  3.79077345e-03 -5.90872280e-02  1.01078972e-02
  -7.72946328e-03  9.14479047e-03 -2.52606161e-02  7.17095658e-02
  -4.60088514e-02  3.42838839e-02  3.95236760e-02  5.54721132e-02
   1.30212903e-02  2.71888748e-02  2.60781795e-02 -6.85423613e-02
   6.07228950e-02  1.33985057e-02 -3.08544300e-02  3.71421278e-02
   1.61214694e-02  2.66790763e-02  3.12132761e-02  5.66107854e-02
   5.16863689e-02  2.78522000e-02  3.32165658e-02 -2.37901509e-03
  -8.04802999e-02  6.41939715e-02  4.20220941e-03 -1.48504600e-02
   1.79390386e-02 -3.45469639e-02  1.14571527e-02  6.62917122e-02
   4.55724373e-02 -2.87446603e-02  2.38906145e-02 -3.96484062e-02
  -4.46455404e-02 -7.04687685e-02  3.20532545e-02 -8.02033916e-02
   2.65983418e-02  4.08954918e-03 -6.09122999e-02  5.55772111e-02
   2.59806588e-02 -4.46829796e-02  2.72803009e-04 -4.60337996e-02
  -5.78673854e-02 -4.69641425e-02 -5.58944941e-02 -3.29142883e-02
   2.52464563e-02  3.20699587e-02 -1.67207047e-02 -5.46972975e-02
   7.44878501e-03  6.11085817e-02 -4.74885777e-02  4.34694067e-02
  -6.07517511e-02  2.61895880e-02 -6.80736601e-02  5.41551039e-02
   1.09020025e-02 -5.49929440e-02 -7.79834911e-02 -4.58257943e-02
  -1.09937638e-02 -3.84424888e-02 -2.27955058e-02  5.22072837e-02
   5.66401854e-02 -7.43008405e-02  4.94864509e-02  7.09593967e-02
   3.06944102e-02  5.39432541e-02  6.44794628e-02 -4.38517816e-02]
 [ 6.45305887e-02  1.91173777e-02 -5.71439788e-02 -1.15888566e-03
   1.70146674e-02 -5.07528074e-02  8.10516626e-03  9.52833146e-03
   3.02616954e-02  3.59142423e-02  7.91803002e-04 -3.61233838e-02
   4.05157134e-02  6.26545474e-02 -2.55315453e-02  3.07548568e-02
   3.64151374e-02  5.32177761e-02  6.62303716e-03 -5.96730039e-02
  -7.77735934e-02 -4.21643592e-02  1.53322145e-02  8.21332633e-03
   7.36545995e-02  2.49901861e-02 -4.52073552e-02  5.72039261e-02
   3.18775252e-02 -2.53817886e-02 -6.42629266e-02 -1.74134597e-02
  -2.63891779e-02  2.26401240e-02 -5.69534227e-02 -7.85504133e-02
   8.63648951e-04  6.04279563e-02 -2.53549963e-03 -4.14278358e-03
   2.55663693e-03  7.94450194e-03 -7.13292062e-02 -1.00366026e-03
   6.89193085e-02 -5.64012751e-02 -1.18795931e-02  7.44879171e-02
  -2.21686922e-02  1.48162097e-02 -5.75504713e-02  1.25478208e-03
  -2.78124772e-02  2.23144889e-04 -8.04705173e-02  5.20861670e-02
  -1.51552260e-04  3.24817076e-02  4.91922274e-02  1.88486129e-02
  -1.89261809e-02 -2.55892910e-02  7.85469264e-03 -7.02959001e-02
   2.52962932e-02 -5.21143228e-02  4.30067554e-02  5.65344170e-02
   5.11645749e-02 -6.80455044e-02  3.35673839e-02 -1.51993781e-02
  -7.25989342e-02  7.08586648e-02 -1.00754872e-02  5.72825894e-02
   1.43838078e-02 -6.42794445e-02  3.46000493e-03 -5.18685505e-02
   7.97257796e-02 -4.43073921e-02 -3.31477225e-02  1.88965946e-02
   1.37583315e-02 -7.94024765e-02  5.22687361e-02 -7.65198320e-02
  -2.15983391e-03 -4.93197814e-02 -2.53191516e-02 -4.36882153e-02
  -5.33387437e-02  3.30576599e-02 -7.78639987e-02  8.18404555e-03
   5.48594445e-03 -5.17351739e-02 -4.46567163e-02  7.24090114e-02
   4.61381152e-02  9.94559377e-03  4.08023223e-02  6.09005243e-03
  -5.06272614e-02  5.63404784e-02 -4.28330787e-02  1.28649622e-02
  -3.08666155e-02 -2.54981294e-02  5.88661656e-02 -1.54805779e-02
   7.00535253e-02 -7.97559842e-02 -1.53762847e-03  9.91530716e-04
  -1.49365515e-02 -4.19126339e-02  4.15809602e-02 -1.13458410e-02
   3.92322466e-02  3.42629850e-03  5.94254583e-03  7.26856515e-02
  -6.11488447e-02  5.02582714e-02  4.42444533e-03 -1.63376927e-02]
 [ 6.66838214e-02  3.00052762e-03  2.65990421e-02 -2.69010849e-02
   5.62607571e-02  8.00935701e-02 -6.07184321e-02 -6.90284520e-02
  -5.42005897e-03  7.90545866e-02  6.74840882e-02  5.20263240e-02
   6.30299821e-02  5.62630668e-02  4.46766540e-02 -7.81785175e-02
  -1.45319849e-03 -1.31880641e-02  7.06723407e-02 -4.72301431e-02
   2.97990218e-02  5.79789504e-02 -2.26054266e-02  2.83553451e-03
  -3.27998847e-02 -4.15482968e-02  5.10412380e-02 -6.32126108e-02
  -5.67648932e-02  5.96432164e-02 -5.31769209e-02  2.74701342e-02
   6.82860687e-02  1.61689669e-02  3.71477157e-02 -4.44023423e-02
   7.70437345e-02 -5.59995770e-02  6.82269707e-02 -4.30369042e-02
  -3.86165753e-02  4.90606576e-03  2.82857418e-02 -2.15998366e-02
  -7.53352493e-02  3.38086262e-02  2.01384053e-02 -6.94695562e-02
  -1.33918673e-02 -3.65032069e-02 -9.71379876e-03  1.36176050e-02
   1.60069093e-02 -2.59782225e-02 -4.74458411e-02 -2.20407881e-02
   1.54146552e-02 -2.03844830e-02  6.44168258e-03  1.10360384e-02
  -5.81348911e-02 -6.33488894e-02 -6.93539530e-02 -7.95096904e-02
   1.70833766e-02  4.21110988e-02 -7.00466484e-02 -1.73419714e-02
  -4.63781171e-02  6.02205619e-02 -6.69877529e-02  5.11171594e-02
   6.77960739e-02  3.70492786e-02  3.40870619e-02 -4.19501476e-02
  -3.02876458e-02  2.33761594e-02  1.98649392e-02  3.79237011e-02
  -7.24134594e-02 -1.24072582e-02  7.66055658e-02 -7.85524473e-02
  -3.03639919e-02  4.35893983e-02  7.04045072e-02 -7.54591674e-02
  -2.88181007e-04 -2.91729867e-02  4.11708727e-02  7.75261745e-02
   1.58558041e-02  9.77473706e-03 -7.67078772e-02  3.15046608e-02
  -2.64070295e-02 -3.75759974e-02 -6.37092739e-02 -4.31705900e-02
  -6.63786158e-02  4.18358222e-02  8.24554265e-03  4.31630686e-02
  -1.14835650e-02  9.90871340e-03  4.24201638e-02  3.90219688e-03
  -8.03852528e-02  4.63946536e-02 -7.05262274e-03  3.60314697e-02
  -2.87341215e-02 -4.29831445e-04  7.87268057e-02 -3.25186662e-02
   1.15263835e-02 -1.46303922e-02 -4.00476083e-02 -5.34611158e-02
  -5.33842444e-02  7.13550225e-02 -2.36257948e-02 -3.56066637e-02
  -7.72950649e-02 -5.76937124e-02 -5.98735809e-02 -1.63438246e-02]
 [-5.55349961e-02 -7.80885369e-02  5.02470881e-03 -7.95654953e-03
  -5.93337528e-02 -1.45571008e-02  7.46256933e-02 -1.86999626e-02
   6.64163604e-02 -5.56364655e-03 -1.08508766e-03  4.77167144e-02
   8.00103918e-02  1.33996606e-02 -2.93507427e-02  3.79774049e-02
  -3.83539014e-02  4.78192195e-02 -7.10214898e-02  6.32211044e-02
  -6.26246110e-02 -5.95136955e-02  3.42233777e-02  3.28771621e-02
  -2.95292735e-02  1.90060064e-02  2.34120637e-02 -4.42755781e-02
   2.14069337e-02  5.02797589e-02 -3.31394263e-02  9.28940624e-03
   3.63499522e-02 -6.24679103e-02 -1.84282809e-02  5.32053038e-02
   9.98350978e-03  4.82550338e-02 -4.28815186e-03 -5.90256527e-02
  -1.51093230e-02 -4.87402901e-02 -1.18414015e-02  4.10331264e-02
   7.38179311e-02 -5.63317537e-02  6.02743253e-02  2.41161585e-02
  -6.34656101e-02 -4.34109457e-02 -1.75188780e-02  7.75288045e-03
   4.40761819e-02 -7.94877857e-03 -7.15396255e-02  1.56844407e-02
   6.98538795e-02 -5.54962233e-02  6.19635358e-02 -7.35158622e-02
  -1.37905478e-02 -6.56759441e-02 -5.99025711e-02  4.86922488e-02
   1.32501200e-02 -1.39620006e-02 -1.55379772e-02 -7.81704932e-02
   4.13399488e-02  5.11734113e-02 -2.59208456e-02 -8.07847008e-02
   1.96711347e-02 -1.76964626e-02 -6.31897897e-02 -2.81835422e-02
  -4.68999781e-02 -7.50304759e-03  2.50798240e-02 -6.55544773e-02
   7.24436268e-02 -6.88629523e-02  1.34839416e-02  2.34822854e-02
   4.94081154e-02  5.20634577e-02  6.52277544e-02  6.13539591e-02
  -9.77214426e-03 -4.71866503e-02 -7.13798478e-02 -1.90954097e-02
  -2.52799727e-02  8.74460489e-03 -7.37995133e-02 -5.76528311e-02
  -1.23622417e-02  7.53255263e-02  4.07692194e-02 -2.44866982e-02
   6.96349367e-02  1.66469887e-02  3.61584127e-04  1.11208409e-02
  -4.64692377e-02 -6.36783317e-02 -6.59656450e-02  8.48359615e-03
   2.79871970e-02 -5.20112850e-02 -4.74780016e-02 -5.55656254e-02
  -5.46885356e-02 -3.92512567e-02  2.20708624e-02 -7.44383559e-02
   7.38023445e-02 -5.26639819e-03  7.55163953e-02  3.84529307e-02
  -6.13527894e-02  4.59986553e-02  4.73409370e-02  4.86936793e-02
  -2.25124322e-02  3.88596356e-02 -1.03229582e-02  2.94012129e-02]
 [-1.60605907e-02 -2.01100856e-03 -3.01640145e-02 -6.49520308e-02
  -5.69582731e-03 -6.68747053e-02  1.45202205e-02 -1.50897354e-02
  -9.76935774e-03 -3.04602981e-02 -4.05332521e-02  1.26062334e-02
   1.54831335e-02 -2.07540579e-02  5.85794821e-02 -5.58226109e-02
   5.25250062e-02  2.26736888e-02  1.55654326e-02 -4.14651819e-02
   1.99822634e-02  3.81869376e-02 -5.65810204e-02  2.68635452e-02
  -1.29921883e-02 -1.96617916e-02 -5.69101050e-02 -1.25437081e-02
  -2.65421718e-03  6.06244281e-02 -7.86100700e-02 -2.96101272e-02
  -5.84401190e-03  3.03948969e-02 -4.77840006e-03  6.78922459e-02
  -5.54638878e-02  8.66982341e-03  4.24252525e-02 -6.20390475e-02
  -6.74834847e-03 -1.32071897e-02  5.50453886e-02 -5.38388714e-02
  -2.75097191e-02  4.87654731e-02  1.97607428e-02 -3.25768366e-02
   2.34367847e-02 -6.95973039e-02  3.50016281e-02 -1.71919838e-02
   3.94502878e-02  7.12811723e-02 -3.76230478e-02  2.11335495e-02
   5.44846877e-02  2.13887170e-02  3.52334902e-02 -4.56612632e-02
  -2.07157880e-02  4.40702513e-02  2.34905630e-02 -1.40205994e-02
   1.47606730e-02  7.58042410e-02 -5.36049381e-02 -2.06861645e-03
  -2.47664638e-02 -5.38050458e-02  7.22053275e-02 -5.95942587e-02
   6.97076842e-02  6.72375485e-02  6.11707196e-02  7.90283009e-02
  -6.68471307e-02 -3.10563222e-02  5.10951951e-02 -1.56434476e-02
   3.71662974e-02  1.89077705e-02 -1.13983452e-03 -1.97389126e-02
   6.78220019e-02  5.39854541e-02 -6.65468052e-02  6.70949146e-02
   3.78783122e-02 -7.37366453e-02 -6.11477792e-02 -6.15146458e-02
  -5.85316382e-02 -6.90389276e-02  4.97091189e-02  4.99904528e-02
   7.16921762e-02  1.88182145e-02  2.82429308e-02  3.73763889e-02
  -5.21355942e-02  1.69478133e-02  3.32407206e-02 -6.77475333e-02
   3.71440947e-02 -7.84910843e-02  4.37329859e-02  7.64799342e-02
   1.30890533e-02 -2.10290104e-02  5.22323474e-02  7.25159049e-03
   5.07385507e-02  5.79360798e-02  4.24948707e-02  4.84789684e-02
  -7.15930760e-02 -3.60258222e-02  3.42201665e-02  3.33873257e-02
  -7.26711079e-02  7.84960166e-02 -5.20503670e-02 -7.26763681e-02
   4.34376895e-02 -2.18481794e-02 -1.00743249e-02  5.63345328e-02]
 [-3.59666646e-02 -7.21020997e-02 -5.07988930e-02  1.34769008e-02
   2.62075365e-02 -7.84946978e-02  2.70420983e-02  3.15566435e-02
   7.88294598e-02 -1.95458382e-02  2.28065476e-02  7.08149746e-02
  -7.04305917e-02  4.31269407e-02  4.27465960e-02 -7.43182823e-02
  -7.49820322e-02 -8.10960904e-02  4.49108258e-02 -1.13762170e-02
  -1.16954967e-02  6.83702528e-04 -2.47945413e-02  6.06947616e-02
   4.50909957e-02 -3.19061242e-02  7.54613504e-02 -1.23570785e-02
  -4.84847911e-02 -7.52110407e-02 -2.16877684e-02 -6.05213754e-02
   6.05947897e-02  4.61812541e-02 -1.47493184e-03  6.11566380e-02
   7.11823478e-02 -7.38988072e-03  2.03626901e-02  6.58945367e-02
   4.59741578e-02 -2.46098228e-02 -4.91305739e-02  5.65681383e-02
  -6.21381178e-02 -9.59034264e-03  4.98381183e-02 -2.68858448e-02
   5.80391511e-02 -5.70820421e-02 -7.24928826e-03 -7.89167210e-02
  -5.54508716e-03 -3.18003073e-02  1.45868957e-03  5.38099632e-02
  -6.87392801e-02 -7.73292184e-02  7.69206956e-02  7.97914639e-02
   3.27443853e-02  7.90741965e-02 -7.56977051e-02  7.04673007e-02
   6.06897697e-02 -1.35346428e-02  5.62701747e-02 -4.82075401e-02
   5.70642129e-02  7.25441054e-02 -5.12627214e-02  1.96635127e-02
   7.55881146e-02 -4.35530804e-02  2.81522721e-02 -5.04885875e-02
   6.65457621e-02 -6.69481307e-02  3.79591659e-02 -2.00217739e-02
  -1.00694150e-02 -2.82772370e-02 -1.58310458e-02 -2.40056366e-02
  -4.83506024e-02  6.72425106e-02 -2.01645680e-02  2.20853239e-02
   2.54817680e-02 -7.90715441e-02 -7.03316554e-02 -4.87751551e-02
  -4.52753492e-02  5.21956906e-02 -2.21847817e-02 -7.52304718e-02
   5.95426783e-02  6.02208450e-02  7.46032223e-02  5.63099757e-02
   2.07604542e-02 -6.22149259e-02 -2.20035017e-03 -4.49801125e-02
  -3.99767719e-02  5.50158247e-02  5.45514897e-02 -1.32461637e-03
   7.99574703e-03  4.59421799e-02 -6.07801825e-02  5.06331995e-02
  -6.09099418e-02  6.44191429e-02 -6.88943937e-02  5.33815548e-02
   3.13864648e-02 -3.45765501e-02  3.03960741e-02  2.09964439e-02
   1.10396370e-02  5.29037938e-02 -2.34659426e-02  7.02608004e-02
   3.34765911e-02  2.40535289e-03  2.81735435e-02 -6.49485737e-02]
 [ 1.63936764e-02 -1.56711787e-03 -5.80055974e-02  7.02443793e-02
  -1.88045241e-02  3.77575681e-02  2.29121521e-02 -7.26389065e-02
  -7.65509680e-02 -4.69313078e-02 -5.15088364e-02  4.75483909e-02
   7.03835264e-02  2.68329531e-02  3.29641402e-02 -5.19035161e-02
  -2.55595259e-02  1.58785060e-02 -5.92129827e-02  3.83597389e-02
  -1.15287229e-02 -4.14235480e-02 -1.43122151e-02  5.50194904e-02
  -1.54749751e-02 -2.03008242e-02  1.52894780e-02 -3.87735628e-02
   7.45798647e-03 -1.75101161e-02  8.10155794e-02 -3.00919600e-02
  -6.13144562e-02 -1.94494575e-02 -2.91372500e-02  4.83866856e-02
   3.45572308e-02 -1.71912462e-02 -7.21853897e-02  6.19296506e-02
  -2.49427333e-02 -5.21547571e-02 -7.22032189e-02  5.86414263e-02
   1.77181214e-02 -6.59611225e-02  5.90640306e-03  2.16030329e-03
  -3.78280170e-02  2.70629227e-02 -6.71416298e-02  5.19548878e-02
  -7.38132671e-02  6.58668056e-02 -5.43206632e-02 -4.61316854e-03
   9.83915478e-03 -7.05650896e-02  8.20051879e-03 -6.04227893e-02
  -3.52052189e-02  4.56246957e-02  6.59474954e-02  5.35396561e-02
   5.40998802e-02  4.77264449e-02  2.01938078e-02  8.05500373e-02
   3.45576033e-02 -8.10172483e-02  3.37700844e-02  2.81429291e-02
   1.80567130e-02 -1.25229061e-02 -1.57017484e-02 -2.55882442e-02
  -1.07994527e-02  6.28509000e-02  1.31063163e-02  4.88742217e-02
  -6.34329319e-02  4.58740368e-02  6.83564022e-02  1.03194416e-02
   7.64159635e-02  5.87326214e-02  3.59881148e-02  2.59291232e-02
   3.92849073e-02 -1.28060728e-02  3.57723981e-03  7.09243044e-02
  -6.23786077e-02 -6.57409430e-03 -3.35684642e-02  7.60090575e-02
  -1.43188685e-02 -1.55769065e-02 -7.12474436e-02  3.80783528e-02
   6.08822331e-02  5.27642742e-02 -5.55083826e-02  7.39701167e-02
  -1.97252631e-03 -4.22013924e-02 -4.42481376e-02 -5.22822887e-03
  -5.02314642e-02  7.79074430e-03  6.55528978e-02 -3.47439237e-02
  -3.22222710e-03  1.82705745e-02  5.66177443e-02 -9.52608883e-03
  -1.50090158e-02  7.66719654e-02 -1.11038983e-02 -6.46052584e-02
  -6.93273023e-02 -7.50405490e-02 -2.23575123e-02  4.05052081e-02
  -7.69472718e-02 -3.73182371e-02  7.14430884e-02  2.59129182e-02]
 [ 1.15097314e-02 -3.35733369e-02  8.00128356e-02  4.37913835e-02
   2.48756111e-02  6.31065443e-02 -6.58921823e-02 -7.60755986e-02
  -1.40944123e-02  3.30551714e-02  5.00007793e-02  7.53020570e-02
  -6.82300478e-02  2.59853378e-02  4.28433046e-02 -2.55256258e-02
   5.16395792e-02 -4.33999784e-02  3.36660668e-02 -5.76163754e-02
  -4.00760919e-02  9.46514308e-04  5.83405122e-02 -2.31554285e-02
  -6.90611675e-02  4.22525033e-02  4.49256971e-02 -4.07353155e-02
   7.50453100e-02  5.49256429e-02  5.80324903e-02  6.01167455e-02
   2.23844126e-02  6.80210516e-02 -3.49731036e-02 -4.41660099e-02
  -8.05876628e-02  2.02014670e-02  6.52933195e-02 -5.65915816e-02
  -4.54163067e-02  3.82704958e-02  3.82365957e-02 -6.77343681e-02
   7.17824176e-02  1.80973262e-02  8.24345648e-03  2.44667754e-02
   2.78960168e-02 -7.45471716e-02 -4.15907837e-02 -1.48341581e-02
  -2.86964700e-02 -3.80757973e-02 -4.69532944e-02  2.88481042e-02
  -3.34948450e-02 -2.92030759e-02  7.42635950e-02 -9.61157680e-03
  -4.54773195e-02  2.21575946e-02 -1.71775892e-02 -5.16772941e-02
   5.33497110e-02 -2.76769698e-03  5.31047583e-04  6.02584556e-02
  -2.69987434e-03  1.14627033e-02  9.05407965e-03 -6.38721809e-02
   7.46033713e-02  3.93934101e-02  6.77431449e-02 -1.90383419e-02
   6.64905235e-02  9.90569592e-03  7.59550855e-02  7.65040889e-02
   1.54475272e-02 -7.81915709e-02  3.85198444e-02  1.82420686e-02
   3.47896591e-02  6.00276366e-02  4.59556356e-02 -4.66317385e-02
   1.45847946e-02  1.87293589e-02  2.73815021e-02 -1.19956061e-02
  -7.40503892e-02 -6.26844242e-02 -9.96839255e-03  7.46136978e-02
  -1.63705647e-02 -7.05768466e-02  6.82909861e-02  5.40271923e-02
   6.19050115e-03 -4.52595875e-02 -5.08639440e-02  1.50159374e-02
   7.31152669e-02  1.17259324e-02 -8.04830864e-02 -5.78224659e-02
  -7.35744759e-02  3.15025523e-02 -8.34565610e-03 -6.89553320e-02
   3.66111100e-03  6.98874369e-02  6.69396445e-02  7.42755085e-03
  -1.21237412e-02 -2.87102796e-02  5.06288484e-02  3.75483856e-02
   6.92138895e-02 -4.99384701e-02 -5.09991385e-02 -6.10368401e-02
  -8.83636624e-03 -3.50133330e-03 -6.36320934e-02 -4.63657975e-02]
 [ 1.57325566e-02  8.08144584e-02 -3.02361287e-02 -6.46011010e-02
  -3.07503901e-02 -7.34884590e-02  1.40550733e-03  4.03376594e-02
  -3.17165256e-03  5.95710501e-02  3.03021520e-02  4.12307605e-02
  -5.36254719e-02 -1.49195194e-02  2.52178162e-02  4.09948975e-02
   2.29890421e-02  6.07198402e-02  6.71687648e-02 -4.81386185e-02
   6.08878210e-02  7.84108266e-02  6.28855750e-02  1.43988952e-02
  -1.36713088e-02 -2.62934342e-02  7.96583220e-02  4.26449701e-02
   1.48019195e-03 -5.56480289e-02 -7.72347748e-02 -5.57764694e-02
   4.27533835e-02  6.78531006e-02  4.30282950e-02  5.44459149e-02
   4.42557558e-02 -3.60972397e-02 -9.83478129e-03  2.46921629e-02
   6.69472590e-02 -5.07332534e-02  6.94322065e-02  5.68914786e-02
   7.23860338e-02  4.90542278e-02 -1.34620890e-02  7.98465684e-02
   1.50589645e-02 -5.91604412e-02 -1.38794258e-02  8.68788362e-03
  -5.96473590e-02  4.29470390e-02  3.76605093e-02  6.56583831e-02
  -6.88057095e-02 -8.01437125e-02  4.60932404e-03 -4.95439135e-02
   6.58736601e-02 -7.79334456e-02  6.37847856e-02  5.11339307e-03
  -5.24578467e-02  4.76243570e-02 -6.19311556e-02 -5.65311313e-02
  -3.43798026e-02  3.89160886e-02 -1.68414712e-02  1.60117224e-02
  -9.29226726e-03 -1.42394304e-02 -5.12779392e-02 -4.80692908e-02
  -3.75056267e-02  3.21360976e-02  7.45556876e-02 -4.06208709e-02
  -4.22787443e-02 -7.02388585e-04 -3.60727161e-02 -3.21956575e-02
   6.01803288e-02  7.01651797e-02 -3.63260508e-03 -1.64106935e-02
  -1.90054700e-02 -1.95929259e-02 -1.20092034e-02  3.96707058e-02
  -2.83556730e-02  7.45989159e-02  3.45463306e-03  1.66792274e-02
   6.14716932e-02  6.93869218e-02  2.14466378e-02 -5.85952252e-02
   1.38941780e-02  3.22107822e-02  5.48685566e-02  7.56674632e-02
   9.36686993e-03 -6.64081648e-02 -5.45110516e-02  2.79787704e-02
   6.85847923e-02  3.65352631e-03 -7.13254884e-02  7.52348453e-03
   7.06892535e-02 -7.00217783e-02 -1.15136355e-02  3.10206637e-02
   1.13989636e-02 -4.50351499e-02 -3.62353027e-03  3.31279784e-02
  -5.35360910e-02 -5.41156791e-02 -1.43370703e-02 -3.85784768e-02
   5.89282289e-02 -4.70778346e-02 -4.77726795e-02 -2.80176178e-02]
 [ 2.50198692e-03  6.84541836e-02 -1.25430152e-02 -6.39533848e-02
  -1.51948407e-02 -7.36989379e-02 -1.73495263e-02  7.91085139e-02
   5.67117259e-02 -4.94320206e-02  6.45199046e-02 -7.41899535e-02
  -6.26997203e-02  6.68800399e-02 -6.93955123e-02  3.67490724e-02
   3.04414630e-02  6.11785874e-02 -4.06006239e-02 -4.82094139e-02
  -6.99865818e-02  4.77245227e-02 -2.47623250e-02 -2.27696896e-02
   1.24794319e-02  4.83320728e-02 -2.04713121e-02  4.49550375e-02
  -4.31146808e-02 -4.70809489e-02 -5.81935272e-02  6.57459125e-02
  -1.65932626e-03  3.43581066e-02  7.12584183e-02 -2.49284506e-03
  -5.39969653e-03 -3.83126922e-02 -2.40124837e-02 -2.42419690e-02
   6.77890331e-03  3.51694450e-02  8.08574781e-02 -6.87533394e-02
  -5.45871481e-02 -2.32521445e-03  2.66979933e-02 -4.12462912e-02
   5.61635122e-02 -1.88909285e-02  3.75681072e-02 -7.87352771e-03
  -3.07763629e-02 -6.73776343e-02  6.91029057e-02  5.64163551e-02
   2.69930214e-02  5.97731546e-02  6.37510046e-02 -5.14129773e-02
  -6.82592690e-02  1.78057030e-02 -6.74074367e-02 -3.01446766e-02
  -1.70671716e-02 -6.16897643e-03 -2.21603177e-02  4.23540697e-02
  -6.83471560e-04  2.01165527e-02 -7.29049072e-02  5.04775718e-02
  -5.12358174e-02  3.76188904e-02 -3.90497334e-02 -6.53885528e-02
  -7.25247338e-02  1.59673467e-02  2.96336263e-02 -4.75335978e-02
  -2.99705751e-02 -7.98480213e-03 -7.15364516e-02  3.68241444e-02
   3.08237448e-02 -2.45191269e-02  7.79759958e-02 -9.27269459e-03
  -4.77645770e-02  1.37393177e-03 -1.29332393e-03 -4.12040949e-03
  -3.19990255e-02  5.15892282e-02 -4.86499071e-03  9.31895524e-03
  -6.26032203e-02 -5.42843267e-02  4.17649448e-02  6.79557398e-02
  -2.86944211e-04  5.81964850e-03  6.90372810e-02  2.11602375e-02
   4.00824174e-02  7.41273984e-02  5.30008599e-02  3.22164595e-03
  -2.45798677e-02 -2.73948088e-02  2.24738121e-02  5.86853549e-02
   5.47646955e-02 -7.60456175e-02 -1.65775642e-02  6.27124831e-02
  -2.60772519e-02  2.07284167e-02  3.95675153e-02  3.87683809e-02
  -5.72893098e-02 -4.58203256e-04 -3.19531560e-02 -5.46118990e-02
   7.10982606e-02  4.21775058e-02  6.85467944e-02 -9.78852808e-03]
 [ 4.19060886e-03  3.93505022e-02 -7.43127912e-02  3.55962962e-02
   1.48011744e-03 -2.83255242e-02 -1.74538195e-02  4.66103330e-02
   7.59747401e-02  6.65216148e-03 -5.44473119e-02 -5.48275039e-02
   6.68271258e-02  4.90147844e-02 -2.36092024e-02 -4.10741046e-02
  -7.10470378e-02 -3.42503339e-02  4.16362137e-02 -7.80332312e-02
  -7.55823553e-02  5.54844663e-02 -6.86261356e-02  1.55052766e-02
  -4.71506417e-02 -6.27829880e-03  2.66587585e-02  3.15691158e-02
  -2.42898129e-02  1.61371902e-02 -1.33226588e-02 -3.53960320e-02
  -7.18623996e-02  2.04907283e-02 -7.82880709e-02 -2.52250321e-02
   3.38700414e-03 -1.66357160e-02  1.37575790e-02  6.47046939e-02
  -5.20980768e-02 -6.02251701e-02 -7.93661028e-02 -1.76434517e-02
  -7.18169361e-02  2.70965546e-02 -7.41232410e-02 -5.52768111e-02
  -4.04701121e-02  5.14308438e-02  6.33366033e-02 -2.85869390e-02
   4.09394503e-02 -2.70761922e-02 -4.86943610e-02 -1.87254287e-02
  -3.12059261e-02 -2.08157301e-03 -3.00918631e-02  2.52228454e-02
   3.41763049e-02  7.09488019e-02  4.12677228e-03 -7.72310942e-02
   7.36293420e-02  4.95841727e-02 -4.70273234e-02 -1.27339587e-02
   3.71621624e-02  6.17905632e-02 -7.91698694e-05  3.95897180e-02
   6.80807158e-02  4.48515937e-02 -4.04216312e-02  4.78107110e-02
   7.96144456e-03  1.84916481e-02  4.79780957e-02 -6.24458492e-03
  -7.59927705e-02  6.81512579e-02  4.98538539e-02  4.66719046e-02
  -5.05632535e-02  6.60239086e-02  4.45182547e-02  5.82959428e-02
  -2.77925208e-02  7.38971606e-02 -6.94955289e-02  1.49594992e-03
  -7.22646937e-02 -2.71583013e-02 -6.31093606e-02 -7.79333487e-02
   4.84048352e-02 -5.85267469e-02  6.87938109e-02 -5.00791967e-02
   7.30595514e-02  4.92686033e-03  6.26326725e-02  1.39908120e-02
  -5.41262329e-04  4.03704494e-03  6.85901120e-02 -5.21216094e-02
  -8.03138912e-02  1.99563131e-02  6.66589215e-02 -2.02856250e-02
   7.78807029e-02  5.56204095e-02  6.40993044e-02  2.70973891e-02
  -1.34136826e-02  7.86326155e-02  3.15302461e-02 -2.91221254e-02
  -3.65368351e-02  2.34540328e-02  5.96631095e-02  6.62829652e-02
  -2.52948068e-02  3.99935767e-02 -4.20973524e-02  4.59023193e-02]
 [ 2.20504031e-02 -4.45822254e-02 -3.62440348e-02  6.18895143e-03
  -3.30491364e-02  5.39736077e-02 -7.05932081e-02 -1.81587040e-02
  -5.28661534e-02  1.51012987e-02  7.31514469e-02 -3.29213291e-02
   4.68100235e-02 -6.08348474e-02  1.92058310e-02  5.32885268e-02
  -1.82677880e-02  1.76111609e-03  5.68658188e-02 -3.34753133e-02
   2.07370222e-02 -7.22798556e-02 -3.37596834e-02  1.52617097e-02
  -3.68832424e-02  1.18449032e-02 -7.14315251e-02  6.22063354e-02
  -1.83932558e-02  5.31752184e-02  2.33735070e-02 -4.40956950e-02
  -3.28846276e-04  4.11523655e-02 -6.17026761e-02 -4.45280001e-02
   7.70977810e-02  3.58762592e-02 -3.63420695e-03 -1.68553963e-02
  -6.32992238e-02  4.50795516e-02  3.71051878e-02  3.61189917e-02
  -6.69094324e-02  1.18718967e-02 -5.98563701e-02 -5.98935783e-02
   5.75163737e-02  4.92777750e-02 -4.46808338e-02 -5.19241467e-02
   3.25636864e-02 -7.07602873e-02 -4.90283705e-02  5.38716093e-02
   1.77612603e-02 -7.24955127e-02 -3.72729115e-02 -4.24041748e-02
   3.85281220e-02  2.10599601e-03  5.34043983e-02  1.42200142e-02
  -7.09386468e-02 -2.51452625e-02  1.80003196e-02  1.31349415e-02
  -6.42873198e-02  2.90132910e-02  7.09388182e-02  5.56215122e-02
  -4.52571921e-02 -5.22792339e-04  1.35924816e-02 -9.58663225e-03
   4.57626358e-02 -3.16845849e-02  1.65355057e-02 -3.72576118e-02
   8.09241757e-02  1.62941441e-02 -3.00273113e-02  7.17251971e-02
  -3.57562080e-02 -2.71601006e-02  4.25049663e-03  7.57115111e-02
  -7.57618099e-02  6.98284805e-03 -7.15213493e-02 -7.36474991e-02
  -3.53420973e-02  2.81252339e-02  3.81274521e-02  7.89081976e-02
  -2.49320008e-02  7.66508952e-02  6.46713376e-03  2.93155685e-02
   3.28418463e-02 -4.83715646e-02  7.40238354e-02 -2.98962556e-02
   4.75872830e-02 -5.73890731e-02  2.14424208e-02  3.77577394e-02
   3.57081741e-03  1.64223909e-02 -4.11479585e-02 -6.13934547e-02
   5.82069680e-02  3.40348631e-02 -7.93743804e-02 -4.03712541e-02
   1.51422173e-02  3.18921432e-02  3.21500376e-02 -2.59369351e-02
  -4.93800193e-02  4.64978740e-02 -7.17998371e-02  1.43432766e-02
  -5.98654374e-02  3.45050767e-02  3.62389907e-02 -5.81804365e-02]
 [-3.39400694e-02  1.79570243e-02 -3.54932658e-02 -4.72329073e-02
   4.60233167e-02 -4.85098548e-02  3.56319547e-03 -3.51060927e-02
  -4.87059057e-02 -8.05268884e-02 -1.93006098e-02  7.74230063e-03
  -4.61513363e-02  2.22662538e-02 -4.57965955e-02  6.04108348e-02
   1.72453374e-03  7.76965544e-02 -6.05201200e-02  7.72358701e-02
   5.26961908e-02  6.63958713e-02 -5.88148460e-02  9.26779956e-03
  -2.25232616e-02  7.02057779e-03  1.43939629e-02  3.89413536e-03
  -2.79252790e-02  7.88023993e-02  1.23735890e-02 -3.06978822e-04
  -5.46588153e-02  5.09684160e-02 -4.01337408e-02  6.30403832e-02
  -2.61985809e-02 -3.13513689e-02  3.09541374e-02  6.94335476e-02
  -1.32682174e-03  2.07613632e-02  8.01644847e-02  5.85600734e-03
   3.67692038e-02  4.65836897e-02 -1.96405202e-02 -7.87531361e-02
   6.76861405e-03  3.05351764e-02  3.90412807e-02 -1.10281855e-02
   4.29568216e-02 -4.28127348e-02 -3.35101783e-02  2.15981156e-02
   4.42894623e-02  3.33678126e-02  1.64830759e-02 -5.27478047e-02
   1.68608725e-02  2.65683457e-02 -2.10265517e-02  5.76873347e-02
   8.11035857e-02 -5.37587702e-02 -3.90564054e-02  1.19051635e-02
  -5.23854792e-02  3.47950906e-02 -4.13526148e-02 -5.59692755e-02
   5.45611158e-02  7.70947114e-02 -3.76075990e-02  7.98679367e-02
  -2.69610137e-02 -6.01628646e-02 -8.80033523e-03  2.36607417e-02
  -4.06033918e-02  3.91852334e-02  4.25496176e-02 -2.29114778e-02
   3.21152285e-02  7.44513646e-02 -1.79074705e-03  1.71287358e-03
  -2.95900740e-02  7.87934586e-02 -4.95316498e-02 -5.79975918e-02
  -7.33112991e-02  3.29510123e-02  4.97368500e-02  4.95645627e-02
  -6.63920194e-02  4.00049686e-02 -6.34227991e-02  5.22457063e-03
  -1.70854256e-02  4.40967605e-02 -6.73854351e-03 -2.47200914e-02
  -7.99745023e-02  5.68568185e-02 -1.95621401e-02 -7.77784660e-02
   7.25790933e-02 -3.15233320e-03  1.84779987e-02 -4.35606427e-02
  -6.01116717e-02  6.96992353e-02 -1.11373365e-02  6.41513690e-02
  -4.77159023e-02  3.58669013e-02  2.54109502e-02  5.21349162e-03
  -7.10120723e-02 -5.39202094e-02  9.91571695e-03 -6.80368170e-02
   3.50993201e-02 -4.90829051e-02 -6.72013462e-02 -7.70411566e-02]
 [ 4.25086021e-02 -6.40965402e-02 -7.86739066e-02  9.49706137e-03
  -3.37264016e-02  6.98912889e-03  6.62959293e-02 -2.00854540e-02
  -5.81727773e-02  5.97841814e-02 -2.79111229e-02  1.13187879e-02
  -7.79597461e-02 -2.42061950e-02 -6.75159618e-02 -5.08870184e-03
  -3.02337110e-03  4.62078378e-02  4.90908399e-02 -8.06909502e-02
  -3.37012224e-02  7.40944371e-02  3.24987844e-02  5.78470305e-02
  -7.86526576e-02  7.93603584e-02 -5.20721227e-02 -1.13911107e-02
   1.58034265e-03  3.64130512e-02  6.94686100e-02 -7.62378275e-02
   6.00658283e-02  4.49097976e-02  1.91907510e-02 -1.80845410e-02
   1.74916312e-02  6.05805442e-02 -2.00680494e-02  6.90404698e-02
   1.77309588e-02 -4.88436520e-02  4.72843871e-02  5.78823015e-02
  -7.04801753e-02  3.40366066e-02 -8.01654309e-02 -2.41371244e-03
   4.09790576e-02  1.68097019e-02 -3.97393182e-02  3.78002673e-02
  -1.64781436e-02 -5.12021333e-02  7.06743374e-02 -3.94499302e-03
  -5.33639602e-02  5.01289964e-04 -3.68069746e-02  3.15050036e-03
   6.75912201e-03 -2.74789333e-03 -7.10904151e-02 -1.52760595e-02
   5.69204316e-02 -3.97867933e-02  1.86732784e-02 -6.66096136e-02
  -3.67530175e-02 -7.47161135e-02  4.79763672e-02  3.70174646e-04
  -7.87344724e-02  1.93868354e-02 -4.33264561e-02  1.19313076e-02
   5.81368729e-02  4.43355739e-03 -3.75147909e-03 -6.37619942e-02
   3.46462876e-02 -4.12908085e-02  6.49013296e-02  3.25217247e-02
  -1.97693519e-02 -7.94202685e-02 -5.93247600e-02  2.39087716e-02
  -5.89245148e-02 -2.26176493e-02  4.75904718e-02 -1.43977329e-02
   3.36372703e-02  7.43855536e-03  3.30022797e-02 -2.71818377e-02
  -7.14389458e-02  5.77251390e-02  8.09508935e-02 -3.40940431e-02
  -2.08633766e-02  4.41356078e-02 -3.66529636e-02  5.06607518e-02
  -1.81824118e-02  2.54674777e-02  6.97868243e-02  7.73261860e-02
   5.93919680e-02 -4.14664410e-02  1.59132183e-02  8.86556506e-03
  -6.96499199e-02 -9.28019732e-03  5.48290089e-02  6.49951771e-02
  -4.40437533e-02  5.21944240e-02  5.60672209e-02  4.52749431e-04
   8.70505720e-03 -4.33722660e-02  5.19905016e-02 -1.33357123e-02
  -2.25552842e-02 -1.66805387e-02  7.36384615e-02  6.16375878e-02]
 [ 4.08066139e-02 -4.66331318e-02 -3.93491648e-02  2.47228965e-02
  -4.45324183e-03  6.83108792e-02  1.32265240e-02  4.69827130e-02
   7.48598352e-02  4.41148654e-02 -4.59769815e-02  4.50209305e-02
  -7.73868859e-02  6.14407435e-02 -4.45808545e-02 -3.54925469e-02
   6.63651526e-03 -4.84049618e-02  6.31865934e-02 -7.06003830e-02
   3.40061262e-02 -2.13310532e-02 -5.09815961e-02 -3.26978751e-02
   2.39114761e-02 -2.85156816e-03  3.69308144e-02  3.88680100e-02
  -7.11489096e-02 -1.98550373e-02  3.58674824e-02 -5.66258654e-02
   3.94640192e-02  6.08334318e-02  7.05594346e-02 -7.91464746e-03
   6.96164295e-02  4.36991826e-02 -3.37130390e-02  3.03185061e-02
  -5.28582074e-02  1.89431012e-02  5.97754940e-02  4.58292440e-02
  -4.04299833e-02  1.90941170e-02 -4.47789170e-02  3.25991213e-03
   5.04835173e-02 -3.34232524e-02  4.53496501e-02  7.14696720e-02
  -7.90887699e-02 -1.64966881e-02 -1.75234005e-02  6.70050606e-02
  -5.80903180e-02  4.01500836e-02 -2.71192193e-02 -1.86463185e-02
  -6.74267337e-02  2.81032100e-02  1.04067326e-02 -7.41807893e-02
   7.05006197e-02  4.55352738e-02  1.72913224e-02  6.52166381e-02
   3.36903557e-02 -7.77225792e-02 -6.98735341e-02 -3.74884158e-02
  -4.65887487e-02 -2.23100558e-02 -5.00409231e-02  3.75309438e-02
  -2.82297991e-02  5.25840297e-02 -2.33703107e-03  1.97641328e-02
  -6.94359094e-02 -1.73806995e-02 -2.15860680e-02 -3.24202925e-02
  -6.09882027e-02  1.95723698e-02  2.77702808e-02 -2.85200104e-02
  -4.44938876e-02  6.35923222e-02 -4.36370857e-02 -4.90187407e-02
   1.87205598e-02  3.90361175e-02 -1.14075840e-04 -1.33736730e-02
  -2.31847465e-02 -1.22635588e-02  5.73651120e-02  2.10408419e-02
  -2.75450870e-02 -7.92785436e-02  2.63032243e-02  3.40240002e-02
   6.34527877e-02 -3.80096026e-02  4.09885347e-02  2.15979591e-02
  -6.15930483e-02  7.68806413e-02 -6.37762994e-02  7.18959421e-03
  -7.92143717e-02  3.34578902e-02  5.58355376e-02 -4.28626649e-02
  -3.74667756e-02  1.82966590e-02 -1.16787478e-02 -3.82188819e-02
   6.66583404e-02  6.81615844e-02 -4.46625389e-02 -5.21668419e-02
   7.01597556e-02  5.41714653e-02 -8.04433078e-02  7.36360475e-02]
 [-8.09362158e-02  7.34149888e-02 -5.58873788e-02  6.70348853e-03
  -1.48249939e-02  1.21050626e-02  7.99352750e-02 -2.26917341e-02
  -7.33845159e-02  8.07427540e-02 -1.19872317e-02 -1.54331252e-02
  -1.55976340e-02  7.90489390e-02  1.39995739e-02 -7.75873289e-02
  -2.73667313e-02 -2.79539749e-02  1.75127387e-03  1.37755573e-02
   4.84643951e-02 -1.75461620e-02  5.87128103e-04 -3.77303585e-02
   1.08274147e-02 -5.44221550e-02  9.45700705e-03  2.58080214e-02
   3.58543321e-02 -6.06381968e-02 -4.58561629e-03  6.41395524e-02
  -3.75962853e-02 -3.14144306e-02 -7.38243759e-03  9.71184671e-03
  -4.85278182e-02  3.94360721e-02  6.74493089e-02 -5.61685748e-02
  -2.44003721e-02 -6.43086061e-02  3.17165256e-03 -4.54396270e-02
  -5.35307750e-02 -3.64863239e-02  1.55633464e-02 -4.95868251e-02
  -5.88098913e-03 -7.25406334e-02  4.15237993e-02  3.69608700e-02
  -3.91957350e-02 -1.61609575e-02  2.25077495e-02  7.82665983e-02
  -7.90901482e-03 -1.48422047e-02  4.07549813e-02 -3.88179421e-02
   4.96616587e-02 -2.77296118e-02  1.77565962e-03 -7.93576688e-02
  -5.29280975e-02 -1.39313713e-02 -6.04183786e-02  3.13219130e-02
   6.69376478e-02 -6.65333644e-02 -2.90113166e-02 -5.16165346e-02
  -6.00069985e-02 -5.29553816e-02  7.19615296e-02  2.13623792e-02
  -7.21438676e-02  3.61336023e-03 -1.25342384e-02 -4.06618901e-02
  -3.15774530e-02 -2.08655596e-02 -3.63155268e-02 -4.11551893e-02
  -7.13196099e-02  6.28913417e-02  1.44989118e-02  6.72102049e-02
   7.99501687e-03  2.61637345e-02 -3.49185616e-03  3.45188379e-03
  -1.24657974e-02 -6.17853254e-02 -4.37042080e-02 -1.09000504e-02
  -4.44634259e-03  1.00026354e-02  4.08682451e-02  7.91301951e-02
   4.52457294e-02  6.45941421e-02 -1.06993765e-02  1.48597434e-02
  -5.90549111e-02 -7.91512951e-02  2.83119082e-02 -4.46869060e-02
   4.90014181e-02 -5.97936735e-02 -6.08764663e-02 -1.05686486e-04
   2.09713802e-02 -6.66813552e-02  8.22898746e-03  4.85724732e-02
   1.91641748e-02  2.64264047e-02 -4.82062623e-02  6.46894500e-02
   3.87875065e-02 -2.56368220e-02 -5.52585535e-02 -6.70778304e-02
   6.92864731e-02  7.86046758e-02  6.22565374e-02 -6.30541742e-02]
 [ 7.49313310e-02  6.87430725e-02  4.88241091e-02 -2.24908181e-02
   5.62228635e-02 -5.38620763e-02  1.21592432e-02  1.03792548e-02
  -2.14611031e-02  5.69883063e-02  2.81412993e-03  7.91696534e-02
  -7.05583021e-02 -8.77070278e-02  6.91173598e-02 -7.54525959e-02
  -5.31744063e-02 -1.98084246e-02  3.06838453e-02  6.10905401e-02
   6.17235787e-02  7.92789832e-03  1.86688676e-02 -5.66819832e-02
  -4.76256199e-02  3.94967347e-02  4.41009887e-02 -3.54193524e-02
  -6.87662736e-02 -5.85006289e-02  6.20916579e-03  1.99398920e-02
   7.05855191e-02  7.39282817e-02 -6.56453669e-02 -2.63097957e-02
  -3.52334827e-02 -6.35097027e-02 -3.92747708e-02  3.39551345e-02
   3.53211090e-02  1.70584470e-02 -5.74705824e-02  6.77183792e-02
   4.29091007e-02 -8.14618841e-02 -1.62354857e-03  6.61513582e-02
   7.45775774e-02  6.43918142e-02 -7.44611174e-02 -3.16150486e-02
   6.76359758e-02 -7.53173698e-03  2.77830977e-02 -6.43548816e-02
  -2.11228114e-02  8.23125467e-02  2.39547826e-02 -3.57527658e-02
   7.70305395e-02  8.06434378e-02  4.73880060e-02 -5.20699956e-02
  -5.29947393e-02 -5.04407436e-02 -5.34246638e-02 -1.75598674e-02
   4.65519652e-02 -2.62117051e-02  2.33191939e-04 -3.36684249e-02
   4.23634872e-02  4.61453572e-02  6.00997210e-02  8.03034082e-02
  -2.03374550e-02  6.00131229e-02 -6.63827583e-02  6.16424866e-02
   7.87924454e-02 -2.87695415e-02 -1.28152892e-02  6.67966083e-02
  -4.64596599e-02  5.21491989e-02 -2.62535624e-02 -7.00286627e-02
  -2.31928229e-02  6.69489475e-03  7.68364742e-02  1.83324441e-02
   8.76728073e-02  1.00073190e-02  4.78263348e-02  5.96620925e-02
  -5.85168414e-02  1.79514047e-02  6.36674762e-02 -6.69014305e-02
  -6.16688132e-02 -5.77525795e-02 -3.68127674e-02 -1.07039437e-02
  -5.88976741e-02 -4.65710163e-02  2.57882383e-02 -7.82821625e-02
   5.26658818e-02 -3.02885938e-02  6.64440617e-02 -7.98929557e-02
  -5.58144180e-04 -8.67426861e-03 -4.13120613e-02 -3.50487716e-02
   2.51201615e-02 -5.44853956e-02 -6.13059029e-02  3.94830666e-02
  -3.01038008e-02 -1.74094625e-02 -2.48156302e-02  1.96038000e-02
   4.35011983e-02 -7.30280355e-02  7.65860314e-03 -3.72659899e-02]
 [-3.32099609e-02  4.78877760e-02 -6.69470057e-02  9.17594135e-02
   3.26311798e-03  9.75624938e-03 -4.48710434e-02 -6.74812272e-02
  -9.71018597e-02  2.63896696e-02 -7.02179037e-03 -5.15025929e-02
  -1.50424906e-03 -6.24118038e-02  4.43293378e-02 -8.31360593e-02
   4.64779958e-02  1.91186722e-02 -4.09713164e-02  4.01166975e-02
  -1.41572170e-02  4.73648570e-02 -5.33691049e-02  1.47175509e-02
   7.64411613e-02 -8.04882646e-02 -7.86162615e-02  6.02764413e-02
  -8.24473947e-02  2.51017939e-02 -4.40540388e-02  2.47055665e-02
   4.12138477e-02 -4.53271531e-02  3.13172489e-03  1.20300055e-03
  -3.92046124e-02  7.85167664e-02 -8.59001800e-02 -2.13250145e-02
   1.66467130e-02  7.75625929e-02  4.78408374e-02  1.04674667e-01
  -7.32578561e-02 -4.46976013e-02 -6.46739304e-02 -6.93412796e-02
  -1.89213585e-02 -5.42659359e-03 -8.34129229e-02 -6.44035265e-02
  -4.24081907e-02  4.38758694e-02 -4.49270150e-03  4.80704308e-02
  -9.26224608e-03 -2.20752023e-02  5.88781089e-02 -9.62952524e-03
   8.02964494e-02  3.93166617e-02  3.03750522e-02 -2.26854011e-02
   2.90288106e-02 -1.20464433e-02 -1.50541179e-02 -1.91732887e-02
  -3.43801118e-02  1.35765607e-02 -9.85432137e-03  6.49735108e-02
   1.05071403e-01  9.95603204e-02  2.34265048e-02  4.60333601e-02
  -2.71957158e-03  8.99264514e-02  6.09590895e-02 -7.20964149e-02
   5.60400635e-03 -1.49549805e-02 -2.94739641e-02 -5.15410937e-02
   1.27338460e-02 -2.16561854e-02 -9.07209888e-03 -9.52051580e-03
   4.49630655e-02 -6.20830394e-02 -9.13507715e-02 -4.79459651e-02
   6.60010502e-02 -2.06226688e-02 -9.15616676e-02  5.63785955e-02
   8.17790776e-02 -8.60240012e-02 -1.43357236e-02  9.53116715e-02
   2.03212239e-02  1.89719244e-03  6.94968551e-02 -3.15122828e-02
   1.78113505e-02 -8.90556499e-02 -6.87227175e-02  5.95414266e-02
   3.66344899e-02  3.65912654e-02  1.34294871e-02  2.70212144e-02
   3.39183807e-02 -2.89623942e-02  3.29822302e-03 -2.08985955e-02
   8.73524249e-02 -5.40776625e-02 -5.36710024e-02  2.00487822e-02
  -1.33355975e-03  1.82264170e-03  7.56138116e-02  3.74876447e-02
   1.44977961e-02 -1.72622167e-02  6.52947724e-02  7.13866279e-02]
 [-9.48805511e-02 -1.61816880e-01  4.01232019e-03  7.31371865e-02
  -1.48580059e-01  8.76179859e-02 -2.38888338e-02 -2.91649569e-02
  -3.37489955e-02 -6.52420968e-02  7.85662532e-02 -7.96664879e-02
   6.02515340e-02 -1.72007352e-01 -6.28066212e-02 -1.32420123e-01
   7.12984130e-02  9.09433812e-02  1.05078518e-01  6.52670069e-03
   5.05301319e-02  2.04691980e-02  1.99010223e-03  1.68726340e-01
  -4.44123410e-02  1.46677345e-02 -6.21848889e-02 -1.43606216e-02
  -1.60916783e-02 -2.14451309e-02  1.30492300e-02 -9.94863827e-03
   1.62589759e-01 -1.85007706e-01 -8.65968391e-02  7.12875798e-02
   4.65288237e-02  1.02499984e-01 -8.23752582e-02  5.67312464e-02
   1.28522683e-02  1.59635544e-02  7.77116045e-02  4.67751250e-02
  -7.70883635e-02 -8.96617696e-02  5.43201193e-02 -4.45440114e-02
  -1.18525527e-01  3.68181281e-02  6.20755032e-02  1.09146528e-01
   1.74116299e-01  1.00027658e-01  1.77722409e-01  1.75899006e-02
   4.82275896e-02 -3.37170213e-02  1.60793737e-02 -2.38396935e-02
   1.64312705e-01 -5.52026182e-03  2.42316611e-02  8.35562311e-03
   1.20483637e-01  4.66108397e-02  5.17771468e-02 -1.39750853e-01
  -3.46106067e-02 -8.98051858e-02 -1.20246798e-01  5.06247506e-02
   9.35380086e-02  1.60827398e-01 -3.02282181e-02 -9.93653312e-02
  -2.15009794e-01  4.92619164e-02  1.88055396e-01  1.10795289e-01
  -6.35161027e-02 -4.49530482e-02 -1.22618623e-01  1.96234211e-02
  -4.44716103e-02  6.01742938e-02 -3.57057117e-02  2.67231138e-03
  -4.69639376e-02  7.52651542e-02 -1.80872472e-03  3.34589221e-02
  -5.00364555e-03  1.71482548e-01  7.66050071e-03 -1.06654584e-01
   1.53189659e-01 -1.09572716e-01 -9.89685655e-02  1.97018713e-01
  -6.59707561e-02 -1.48802534e-01  1.47411406e-01  3.44696105e-03
   7.78369233e-02  1.01481692e-03 -1.70268994e-02 -1.33752719e-01
  -3.81994690e-03  1.20525576e-01 -4.42567803e-02  4.26374301e-02
  -4.95941602e-02 -3.52617055e-02  6.46671131e-02  5.06650917e-02
   4.19423655e-02 -1.25777600e-02 -1.19612172e-01  7.86482319e-02
  -1.20634831e-01  1.90824255e-01  1.18569493e-01 -2.00088799e-01
  -4.81404848e-02 -1.35445818e-01 -8.34743157e-02  1.25604331e-01]
 [ 5.06195128e-02 -8.09190273e-02 -1.06521532e-01  7.71352500e-02
  -5.07769883e-02  1.21791631e-01 -5.90699166e-02 -2.75591714e-03
  -1.72554582e-01  4.77460437e-02  5.84203154e-02 -8.17586929e-02
   1.81415781e-01 -1.96851999e-01  1.74259059e-02 -9.19625014e-02
  -1.65524036e-02  3.19543816e-02  1.47811830e-01 -1.39209241e-01
   1.70683891e-01  1.90182291e-02  7.88944289e-02  1.40372857e-01
   6.41275570e-02  4.65733483e-02 -7.74837509e-02 -6.29856586e-02
   2.87426002e-02 -1.56309474e-02 -1.00257630e-02 -1.02187812e-01
   1.96682677e-01 -3.34855951e-02  3.06891687e-02 -4.78984639e-02
  -4.53533679e-02  6.12811223e-02 -5.42512164e-03 -7.85763860e-02
   1.29890099e-01 -9.10408562e-04  2.39435270e-01  8.43891799e-02
   2.76595857e-02 -6.67264163e-02  2.15898789e-02 -1.10759072e-01
  -7.15320483e-02  4.32265960e-02  6.12034649e-02  1.13151468e-01
   1.62429750e-01  2.26970300e-01  6.18645065e-02  1.33405719e-02
   7.67591521e-02  3.54890339e-02  1.40302211e-01 -1.56562105e-02
   6.99026659e-02 -8.93238857e-02  1.47789329e-01  3.40371914e-02
   8.66235048e-02  6.50863871e-02  8.23558718e-02 -3.47306542e-02
   2.54315864e-02 -2.03317359e-01 -4.28326428e-02 -3.16828825e-02
   1.28057837e-01  4.59813327e-02 -1.23118259e-01  2.38166489e-02
  -1.53385878e-01  1.52321130e-01  1.79205954e-01  7.40656406e-02
  -9.74346027e-02 -3.77134867e-02  1.74317714e-02  1.21974200e-02
   6.58691525e-02  8.04959536e-02 -2.42787097e-02  2.84392741e-02
  -4.51709479e-02  8.61556306e-02 -2.69083008e-02  1.45308822e-01
   8.98286924e-02  4.92363758e-02 -1.08753420e-01  3.90385389e-02
   2.36905351e-01 -5.94460107e-02 -1.39053151e-01  9.72495824e-02
   8.21356550e-02 -9.60658789e-02  1.50189698e-01 -2.58257315e-02
   2.08440945e-02 -4.88143675e-02 -4.57927920e-02 -1.02801487e-01
   9.85985845e-02  1.69611350e-01 -5.57367988e-02  2.18991339e-02
  -1.05750948e-01 -8.89405683e-02  3.53322886e-02 -2.93805562e-02
   6.74782395e-02  1.10842094e-01 -1.44542411e-01  2.95277350e-02
  -8.66177902e-02  2.16589361e-01  1.13723017e-01 -1.81977868e-01
  -1.12688169e-03 -1.83810979e-01 -1.03514984e-01  6.71344846e-02]
 [-6.79694116e-02 -2.02273205e-01 -1.10084057e-01  1.24886796e-01
  -7.84038976e-02  3.33614089e-02 -7.76207820e-02 -1.01762369e-01
  -9.12112445e-02  1.69805959e-02  1.04507297e-01 -3.88415940e-02
   9.58100259e-02 -2.29026914e-01 -4.74265181e-02 -1.67020097e-01
  -9.90653038e-03  1.16424046e-01 -5.38061559e-02 -9.75149944e-02
   1.41808465e-02  4.89956997e-02 -7.08531216e-03  1.00777097e-01
   1.09664880e-01 -5.51317260e-02 -9.14407745e-02  3.73197868e-02
   7.38520222e-03  3.96871381e-02 -9.10603330e-02 -5.19568101e-02
   1.42523244e-01 -5.40632643e-02  8.04880913e-03  1.70948282e-02
  -5.51203825e-02  2.52696663e-01  3.92964743e-02  5.25300130e-02
   8.26503634e-02 -4.81185317e-02  1.79136023e-01  1.02604888e-01
   2.56555192e-02 -2.00665817e-01  5.15552126e-02  3.21581401e-02
  -5.28438576e-02  8.90136361e-02 -3.82965268e-03  1.77452445e-01
   8.61999094e-02  1.19776718e-01  6.86265081e-02  2.62274034e-02
   2.44208470e-01 -1.45301158e-02  9.94398296e-02 -5.71994632e-02
   9.49956402e-02 -1.08568529e-02  8.39958712e-02  1.82178155e-01
  -1.76920965e-02  2.94228457e-03  5.54857962e-02 -7.56135061e-02
   6.45924639e-03 -1.49218395e-01 -1.59862325e-01  6.70126602e-02
   7.17814267e-02  5.77295609e-02 -1.01398803e-01  1.65031087e-02
  -8.79431888e-02  1.71338946e-01  9.64272097e-02 -1.30595388e-02
  -5.02696112e-02 -5.39262593e-02  2.50512585e-02 -2.00017467e-02
   7.28381723e-02  1.89112186e-01  2.48846821e-02  1.05976976e-01
  -5.54250255e-02  8.07491690e-02 -5.51107936e-02  5.79610392e-02
   8.23187754e-02  3.20271216e-02 -1.08910710e-01  1.81824993e-02
   1.56165764e-01 -1.10958062e-01 -3.73802781e-02  1.69914663e-01
   2.79495437e-02 -9.05962363e-02  8.66772830e-02 -1.32834911e-01
   3.16281840e-02 -6.60710111e-02 -5.47281988e-02 -1.31830275e-01
   3.83019820e-02  1.13988146e-02 -5.32723218e-02  6.96659312e-02
  -1.88331202e-01  4.98802681e-03 -8.05437118e-02  3.26055586e-02
  -1.19148813e-01 -5.32621145e-02 -5.30627836e-03  6.17123768e-02
  -1.04377151e-01  2.08419874e-01  1.65524855e-01 -1.06959358e-01
   1.46147059e-02 -1.31205916e-01  1.15216058e-02  1.07472435e-01]
 [-1.57451853e-02 -2.41928682e-01 -1.81880221e-02  1.62858263e-01
  -6.03543893e-02  4.69072051e-02  4.57277633e-02 -3.57063077e-02
  -2.13222086e-01 -5.41638620e-02  1.66264981e-01  3.77014056e-02
   6.44357651e-02 -1.15560204e-01 -4.39909138e-02 -1.28106892e-01
   5.24561480e-02  1.07781656e-01 -2.94117201e-02 -7.28207082e-02
  -4.06561559e-03  2.34663058e-02 -7.74607584e-02  1.16689041e-01
  -3.01483665e-02  3.46910357e-02  2.22127568e-02 -1.81027725e-02
  -6.15773834e-02 -2.57685315e-02  9.44021121e-02  2.34454609e-02
   2.51749486e-01 -1.52161062e-01 -2.31430344e-02 -7.25678802e-02
  -2.61992775e-02  1.33383796e-01 -6.03769012e-02 -8.04310217e-02
   2.52420548e-02  7.17814639e-02  8.62046257e-02  1.24699295e-01
  -4.86541055e-02 -9.73156765e-02 -2.32019089e-02  3.48641872e-02
  -9.85996872e-02  6.84753805e-02 -7.61375725e-02  1.09666973e-01
   1.55850381e-01  1.41864851e-01  1.52154192e-01  2.23895777e-02
   1.09301284e-01  5.54916896e-02  1.66779421e-02  5.22402897e-02
   2.68090647e-02 -1.33721694e-01  3.99352871e-02  8.07328671e-02
  -3.14365253e-02 -5.69645613e-02  5.42588346e-02 -5.98969124e-02
  -4.15167846e-02 -3.56562361e-02 -7.30157644e-02  2.65007839e-02
   4.04809304e-02  6.34565577e-02 -1.33616239e-01 -1.06022768e-01
  -1.09959632e-01  1.19766764e-01  7.34378472e-02 -1.34223495e-02
   2.75956877e-02  2.90031675e-02 -2.45096497e-02 -4.91106249e-02
  -6.08987175e-02  2.09174767e-01 -1.57004781e-02  8.71173367e-02
   5.64876460e-02  1.55189961e-01 -4.16498929e-02  1.38068482e-01
   1.43460512e-01  1.64354727e-01 -1.57309532e-01  1.24534428e-01
   1.53948829e-01 -1.23509303e-01 -9.04737264e-02  1.20562039e-01
   7.41561949e-02 -2.11957265e-02  1.72989056e-01 -3.30502801e-02
  -6.44186363e-02  6.69123046e-03 -2.54529789e-02 -1.52141064e-01
   7.86594953e-03  1.26003116e-01  2.93781292e-02  3.31512615e-02
  -6.76174462e-02 -1.61898091e-01  3.77127379e-02 -3.11903488e-02
  -9.42468494e-02  1.06586844e-01 -7.92616829e-02  1.02301858e-01
  -7.70136490e-02  2.03597382e-01  7.21466914e-02 -1.60401627e-01
  -2.89737806e-02 -1.37793332e-01 -6.94898739e-02  2.26663619e-01]
 [ 6.66399896e-02 -2.15632975e-01 -2.15401165e-02  5.94780520e-02
  -7.59207159e-02  6.81362525e-02  3.61061059e-02  2.47508921e-02
  -1.19841643e-01  8.78322348e-02  1.23986252e-01  8.68292712e-03
   6.75632283e-02  3.63036082e-03 -1.01294905e-01 -6.99010864e-03
   7.21515194e-02  4.70118150e-02  9.13998112e-02 -4.86940444e-02
  -3.98359001e-02 -2.17991732e-02  4.04067300e-02  1.09564975e-01
  -2.40728632e-02 -6.80908933e-02  9.59685631e-03 -5.42271659e-02
  -8.15674886e-02 -1.18334610e-02  1.09077692e-01 -5.76994382e-02
   1.46808460e-01 -6.68956386e-03  6.62786961e-02 -4.28702049e-02
   3.58266803e-03  1.05102733e-01  1.18091283e-02 -1.21630594e-01
   1.23282243e-02 -8.15610867e-03  1.73158929e-01  1.17933244e-01
  -4.64259088e-02  2.73799114e-02  1.98695697e-02 -2.93312389e-02
  -3.39124911e-02  7.35880211e-02 -4.85286489e-02 -1.04432590e-02
  -1.11059109e-02  1.41020238e-01  8.86628553e-02  8.03245045e-03
   1.21530943e-01 -2.23584082e-02  6.24126978e-02  3.34319882e-02
   1.09492324e-01 -1.09766662e-01 -1.89228151e-02  3.51641551e-02
  -4.84385230e-02 -1.18918763e-02  3.83505784e-02 -1.04245238e-01
  -1.00998608e-02 -5.44224866e-02 -4.30375687e-04  1.99689791e-02
   5.73349632e-02 -5.54062538e-02  1.23469708e-02 -8.96584168e-02
  -1.31602168e-01  1.90411389e-01 -8.90398771e-03  5.68940528e-02
  -6.21591881e-02 -3.34795788e-02 -6.02836646e-02 -7.26997405e-02
   4.51194793e-02  5.09702228e-02 -7.14158639e-02  1.68179512e-01
   2.14896530e-01  1.12602875e-01 -3.58169116e-02  6.98245689e-03
  -4.13338803e-02 -2.84329634e-02 -7.09949434e-02  2.08223946e-02
   8.88891965e-02  2.56398739e-03  1.07484842e-02  1.35479495e-01
   1.90119613e-02 -4.44452316e-02  5.21558113e-02 -1.02717720e-01
  -5.30903675e-02 -2.61172727e-02 -5.20323440e-02 -2.56594121e-01
  -5.09555638e-02  1.12201430e-01 -6.12494722e-02  1.57679841e-02
  -3.95231582e-02 -7.34856948e-02  9.52921361e-02  1.13971233e-02
  -2.44257033e-01  5.44545613e-02  1.10537894e-02  9.36097354e-02
  -6.03551604e-03  2.11003006e-01  1.08282834e-01 -1.65843070e-01
   6.70258142e-03 -2.54999604e-02 -3.17217521e-02  1.48966476e-01]
 [ 4.05291766e-02 -1.09627619e-01 -6.20258190e-02  2.37254694e-01
   1.43125430e-01  6.97748140e-02 -4.12484929e-02  1.05497753e-02
   1.53471588e-03 -1.17360363e-02  2.21538290e-01 -8.82974342e-02
   7.50346780e-02 -5.98490313e-02  2.19318531e-02  1.06609007e-02
   7.60023817e-02 -2.78251581e-02 -4.73949835e-02 -3.22542265e-02
   1.50263488e-01  1.56389400e-01 -1.29601151e-01  1.65034086e-01
   9.00705606e-02 -1.40450478e-01  2.94910162e-03  1.35198310e-02
   4.22458805e-04  6.93614408e-02  9.60920304e-02 -1.27772599e-01
   4.03716043e-02 -2.07892567e-01  2.34249867e-02 -9.40264016e-02
  -2.00594813e-02  9.37024597e-03 -4.54331413e-02 -5.95108792e-02
   1.04067540e-02  1.63268931e-02  8.87746513e-02  1.09794669e-01
  -8.46062005e-02 -1.21378794e-01 -1.48101887e-02  8.50385427e-02
  -6.74474007e-03 -1.75535101e-02 -5.20175770e-02  5.17634749e-02
   1.22878239e-01  1.93273306e-01  3.43074575e-02 -5.17129665e-05
   3.46868783e-02 -1.53686537e-03  7.57889748e-02  2.76485030e-02
   4.93658260e-02 -2.78172251e-02 -2.19690539e-02  2.40978375e-01
   6.32223189e-02 -5.10289520e-02 -3.02962810e-02 -6.82458580e-02
  -6.66559786e-02 -6.54788166e-02  1.96793955e-02  2.35471986e-02
   9.94283482e-02  1.65520370e-01 -2.32766941e-02  3.29704583e-02
  -1.61181942e-01  8.66000429e-02  2.30638444e-01  5.04814386e-02
   8.26172680e-02 -7.07309507e-03 -6.58439249e-02 -7.06664473e-02
  -3.30150723e-02  1.26978815e-01 -4.52453606e-02  1.60026625e-01
   5.32796420e-02  9.04077739e-02 -2.37934608e-02  9.41397715e-03
   1.77983880e-01  1.99517652e-01 -7.92721957e-02 -8.05713311e-02
   7.05036670e-02  6.29916228e-03 -5.21501191e-02  1.15123987e-01
   1.35975834e-02 -1.10940412e-01  6.20904379e-02  9.29923914e-03
  -2.11874209e-02  4.73399423e-02 -6.02727607e-02 -3.06589574e-01
   1.45011172e-01 -3.36432867e-02  1.72540378e-02 -7.09527805e-02
  -1.20163728e-02 -1.25899881e-01  2.09689904e-02 -6.00984413e-03
   1.69822667e-03 -1.42220696e-02  1.21700661e-02  3.25010531e-02
  -5.09156995e-02  5.32128699e-02  2.58694347e-02 -4.10652049e-02
  -3.55883762e-02 -1.13370366e-01 -1.32859111e-01  5.57229556e-02]
 [-9.76611078e-02 -1.29473612e-01 -7.01238289e-02  1.98004201e-01
  -6.21479414e-02  2.33471338e-02  1.74663156e-01 -3.45045142e-02
  -1.96756706e-01 -2.84960903e-02  3.08169067e-01 -4.52370830e-02
   2.82916501e-02 -3.21745574e-02 -4.40787598e-02 -1.28657058e-01
   1.67964324e-02 -4.50444594e-02  1.22848094e-01 -4.93731909e-02
   9.83614549e-02  1.28161177e-01 -5.92150427e-02  2.66336240e-02
   3.29700502e-04  3.00942976e-02 -3.83579619e-02 -2.65423954e-02
  -1.36980698e-01  7.78080449e-02  1.71722412e-01 -1.45673424e-01
   2.53068537e-01 -2.11608157e-01 -1.43500036e-02 -1.06522441e-01
  -5.32971211e-02  5.81309386e-02 -8.88524635e-04 -1.17241345e-01
   1.29604787e-01 -5.24101481e-02  1.92974508e-01  1.57695994e-01
  -6.36906922e-02 -8.76356661e-02 -4.77930009e-02 -5.38744964e-02
   1.42940376e-02 -1.33082932e-02 -1.56719849e-01  7.21408129e-02
   7.48568699e-02  2.85256952e-01  1.79240137e-01  6.45676162e-03
   1.34001598e-01  7.63010085e-02  9.49395820e-02 -6.06139638e-02
   8.05813521e-02 -3.12454682e-02  5.05858921e-02  1.34179890e-01
   7.03842714e-02 -1.10849999e-01  5.45192771e-02  3.08287162e-02
   8.46038982e-02 -2.21516028e-01 -1.35507703e-01 -3.15859430e-02
   1.20257087e-01  1.17974743e-01 -5.43427616e-02 -6.04151152e-02
  -2.08813176e-01  8.36867541e-02  2.18129352e-01 -8.57554469e-03
   5.86663522e-02  1.77807491e-02 -1.00744551e-03 -2.33766120e-02
  -1.37217760e-01  1.88454226e-01 -1.06192231e-02  1.70555770e-01
  -8.46917778e-02  3.74158695e-02  7.83853903e-02 -5.51670082e-02
   1.38571247e-01  1.64235294e-01 -2.02020705e-01  4.86308411e-02
   1.37007669e-01 -1.99155379e-02 -1.03660421e-02  1.67554259e-01
   1.43427560e-02 -7.60543942e-02  5.67524210e-02  3.70311476e-02
   2.17055846e-02 -3.09366416e-02 -5.56742810e-02 -2.73837417e-01
   5.80692440e-02  3.28155532e-02  8.53315219e-02 -7.57658575e-03
  -2.27233961e-01 -1.20320514e-01  1.56969905e-01 -1.59490593e-02
   4.45994064e-02 -1.91363432e-02 -1.31805941e-01  1.10700771e-01
  -1.71397571e-02  1.54250458e-01  2.30422944e-01 -4.02102210e-02
  -5.76113947e-02 -2.00173616e-01 -1.93363145e-01  1.90150030e-02]
 [-1.02186715e-02 -1.11805797e-01 -3.93070653e-02  1.23418398e-01
  -8.52099247e-03  8.68893936e-02 -2.39628106e-02 -9.07461271e-02
  -1.55888081e-01  1.04012629e-02  3.17549646e-01  3.46651748e-02
   4.83865775e-02 -1.12461075e-01 -1.21978842e-01 -2.29466166e-02
  -6.84391558e-02 -2.10016668e-02  1.38814628e-01  1.82449371e-02
   1.97336793e-01  1.00505635e-01 -8.26548338e-02  5.08368127e-02
   1.31484449e-01 -3.13004628e-02  1.41469548e-02  5.53798005e-02
  -8.27539787e-02  8.37984458e-02  1.13543026e-01 -2.22866029e-01
   1.61905274e-01 -2.73851484e-01  3.43021308e-03 -1.57191724e-01
  -1.18337475e-01  6.27413392e-02  4.71160337e-02  7.12664574e-02
   3.10715828e-02  6.06977800e-03  8.40115324e-02  2.39037380e-01
   3.23420428e-02 -1.44037336e-01 -4.10760865e-02 -4.27904725e-02
  -3.75866890e-02  1.62624106e-01 -5.10309711e-02  1.72384351e-01
   1.66991446e-02  3.07635695e-01  9.90388095e-02 -8.86615962e-02
   1.21280886e-01  7.51562938e-02  1.28483608e-01 -8.00946951e-02
   2.48640515e-02  8.84076953e-03  1.01488478e-01  3.31561089e-01
   8.31560418e-02  8.21323767e-02  1.27579451e-01 -7.24205142e-03
  -2.55965013e-02 -1.95981160e-01 -1.25396252e-01  7.65200146e-03
   1.73016980e-01  2.17252057e-02 -1.27907664e-01  8.04951787e-02
  -2.43233219e-01  1.32990748e-01  3.32070999e-02 -1.15305863e-01
   6.92055523e-02 -7.58847818e-02 -1.66024696e-02  8.36968645e-02
   2.49698982e-02  1.61472887e-01 -8.98694545e-02  5.59693389e-02
   5.90283573e-02  9.76207107e-02 -1.05378823e-02 -7.56787732e-02
   6.60205111e-02  6.47025332e-02 -9.48673710e-02  3.94162647e-02
   2.14522898e-01 -1.12373300e-01  3.56930159e-02  1.72934130e-01
  -6.07844163e-03 -5.03227999e-03  1.07756071e-01 -2.11096164e-02
  -3.73084918e-02  4.59890161e-03 -1.07400931e-01 -1.47136211e-01
   1.79742575e-02  1.28535837e-01 -7.28390962e-02 -2.75211502e-02
  -1.14490174e-01 -4.45476510e-02  4.17169183e-02 -1.03435025e-01
  -1.72709245e-02  6.82040527e-02 -1.42249381e-02  8.58750567e-02
  -2.62147025e-03  1.50775135e-01  1.94017753e-01 -1.41714141e-01
  -6.71520457e-02 -2.13941425e-01 -7.63870180e-02  3.01048122e-02]
 [-1.86648499e-02 -4.03631590e-02 -2.12132894e-02  8.77337009e-02
   6.11905120e-02  1.00447059e-01 -3.32149640e-02  3.50708328e-02
  -7.08619207e-02 -3.40280384e-02  1.07533790e-01 -1.22353397e-01
  -4.05049436e-02  3.92845087e-02 -2.31897235e-02  1.44247394e-02
   5.72212562e-02  4.91457582e-02  1.33451447e-01  5.94632737e-02
   3.66877951e-02 -3.20791118e-02 -9.28225517e-02  2.08422467e-01
   1.19729549e-01 -7.31258392e-02  9.35131088e-02 -7.78770745e-02
   3.57491244e-03 -4.64656055e-02  5.16937822e-02 -1.04648821e-01
  -2.36997530e-01 -4.71655168e-02  7.74266124e-02 -7.72098973e-02
  -6.15631528e-02  3.03197242e-02  1.17767498e-01  1.37597710e-01
  -1.38975261e-03  3.70138586e-02 -2.91386694e-02  1.19080544e-01
   5.98329082e-02  4.16126288e-02  1.30881116e-01  7.26293679e-03
  -1.25136405e-01 -3.39020714e-02 -1.99493468e-02 -6.45666011e-03
  -3.63259166e-02  6.53111339e-02 -4.96242642e-02  1.44773126e-02
   1.38053261e-02  1.46241307e-01  2.69936442e-01 -4.03155163e-02
  -2.50200815e-02 -3.13588753e-02  6.52823597e-02  4.17347044e-01
   1.06731765e-01  6.92511797e-02 -4.68882592e-03 -1.26460521e-02
  -1.78017803e-02 -2.84495912e-02  2.40594819e-02 -6.63243458e-02
   1.34318188e-01 -1.17946304e-01  8.54713470e-02  5.93575835e-02
   5.80600873e-02  1.09141879e-01 -4.44874838e-02  2.20766049e-02
  -1.93854570e-02 -8.27822834e-03  6.16430026e-03 -1.93740595e-02
   4.93558273e-02  1.22588836e-01 -9.44546163e-02 -1.08677119e-01
   7.57352114e-02 -2.68061385e-02 -4.77328971e-02  8.98419973e-03
   1.54956500e-03 -3.34950052e-02  6.26323819e-02  1.55615783e-03
   1.48338657e-02 -1.19911745e-01 -1.38583064e-01 -1.32797882e-01
  -9.29956362e-02 -6.38208762e-02 -5.17523773e-02 -5.62398918e-02
   1.55786470e-01 -5.95017569e-03 -1.06387496e-01  1.12453006e-01
  -1.50796887e-03 -1.19181022e-01 -1.98711008e-02 -1.96921140e-01
   2.78693158e-02  1.35722056e-01  4.31781309e-03 -6.75039515e-02
   8.09459314e-02  1.07350349e-01 -7.07845092e-02  7.94412345e-02
  -1.78186409e-02 -6.19698875e-02  1.23316601e-01  6.91214725e-02
  -4.39162888e-02 -2.55890135e-02  2.20470831e-01 -5.77507131e-02]
 [-1.13582909e-01  1.32058999e-02 -1.57772437e-01  2.59178728e-01
  -1.76888570e-01  1.12637561e-02  9.57039278e-03 -3.57555486e-02
  -9.21226516e-02 -2.09818613e-02  1.43699095e-01 -3.72327566e-02
  -2.06705824e-01 -2.48700663e-01  6.03236221e-02 -2.56913632e-01
  -5.50513826e-02  7.39592090e-02  1.06119841e-01 -3.56859528e-02
   6.73747882e-02  1.18278421e-01 -1.77023020e-02  2.74566799e-01
   1.08340502e-01 -1.10065170e-01 -3.36482115e-02  5.72425351e-02
  -5.84734231e-02 -8.24331790e-02  4.60492708e-02 -7.21977428e-02
  -3.61863300e-02 -3.41806151e-02  7.81850219e-02  9.15314630e-02
  -6.83844388e-02  1.21834405e-01 -6.27407879e-02  1.85637444e-01
   7.19887614e-02  1.74589023e-01  1.56075373e-01  2.85254359e-01
  -1.09193645e-01 -1.58978686e-01  8.46338496e-02 -1.59557462e-01
   4.13451903e-02 -5.63191697e-02  1.34060187e-02  2.43352994e-01
   2.61648238e-01  2.19246522e-01 -8.93056542e-02 -2.51520495e-03
   2.76790529e-01  2.07451075e-01  3.53050143e-01 -7.04162195e-02
   1.13695428e-01  5.66797033e-02  4.28760760e-02  2.23966807e-01
   1.90993875e-01  1.31894067e-01 -1.08689182e-02 -5.87437227e-02
  -4.37822975e-02 -2.79439032e-01 -1.80313699e-02 -1.22111943e-02
   1.02431148e-01  1.73598185e-01 -1.48767710e-01  1.52368873e-01
  -4.25813254e-03  2.01915260e-02  2.60058552e-01 -1.90128565e-01
  -4.46888171e-02 -6.92900568e-02  1.96784139e-02  3.75041626e-02
   1.61204949e-01  1.43817440e-01 -1.56250790e-01  1.41142204e-01
   1.07318461e-01 -8.66294727e-02 -1.17398679e-01 -1.61846876e-02
   2.20358670e-01  1.70977458e-01 -9.39236209e-03 -1.81060240e-01
   8.51036906e-02 -9.12472084e-02 -8.91744420e-02 -1.48058850e-02
   1.22449361e-01 -2.33174339e-01 -7.81201795e-02 -1.40617639e-01
   8.74028280e-02 -6.10683151e-02  2.52127275e-02 -9.53731462e-02
   3.28007847e-01 -7.75862336e-02  2.50638463e-02  1.91411725e-03
  -1.35169506e-01  1.58617258e-01  5.04374877e-02 -1.53056085e-01
   9.60665643e-02  7.78565779e-02 -9.65610519e-02  7.86633119e-02
  -2.04310745e-01 -6.58307299e-02  1.86637446e-01  2.86482554e-02
  -3.73282619e-02 -1.72459573e-01  1.70706823e-01  2.32315198e-01]
 [ 1.53635859e-01 -6.98915496e-02 -1.11569919e-01  2.66476929e-01
  -9.95171741e-02  1.77059174e-01 -3.54981795e-02 -5.08152917e-02
   6.74828247e-04 -1.32235840e-01  1.27580091e-01 -5.84506337e-03
  -6.29644692e-02 -1.21544823e-01 -9.08539221e-02 -1.50236204e-01
  -2.55133100e-02  1.56278759e-01  1.72433391e-01 -1.66892573e-01
   1.79209575e-01  2.82532752e-01 -2.66418327e-02  2.40461782e-01
   2.46916667e-01 -3.42960395e-02 -1.08121820e-02 -6.28308132e-02
  -7.36978874e-02  9.26789045e-02 -6.10056333e-02  4.37587388e-02
   8.33892450e-02 -6.27335981e-02  9.26998109e-02  5.41085079e-02
   8.79082903e-02 -3.50926965e-02 -5.76068833e-02  1.11794502e-01
   1.90544769e-01  4.54097651e-02 -1.17395610e-01  2.15681314e-01
   7.17246681e-02 -1.95731416e-01  7.49941682e-03 -1.25660868e-02
   4.78197187e-02 -2.32116386e-01  9.22023058e-02  3.03309619e-01
   3.09623241e-01  1.29246116e-01 -1.16738401e-01 -2.02871095e-02
   1.52641222e-01 -9.88885909e-02  2.16094762e-01 -2.06893906e-01
   3.18417013e-01 -2.67329533e-03  8.31054375e-02  1.67538658e-01
   8.76556933e-02  9.26575437e-02  1.66095793e-01  1.88445058e-02
   7.75656328e-02 -8.40562209e-02 -1.72926858e-01 -1.00206636e-01
   1.74236432e-01  1.54824600e-01 -2.29786009e-01  3.44373100e-02
  -6.39308169e-02  7.70693365e-03  1.09325252e-01 -6.50535971e-02
  -5.53771034e-02 -2.16590747e-01 -1.07245281e-01  1.40457019e-01
   2.05296040e-01  1.27557382e-01 -1.60617113e-01  2.13869274e-01
   1.28826082e-01  8.53847936e-02 -5.56095317e-02 -8.75846595e-02
   1.39070824e-01  2.79801488e-01 -6.82641119e-02 -2.63473749e-01
   8.86341631e-02 -8.59179720e-02 -2.21302226e-01 -1.02712169e-01
   4.29048315e-02 -1.34163067e-01  1.52544929e-02 -1.06890626e-01
   1.04651250e-01 -7.13196024e-03  6.86634192e-03 -2.73663849e-01
   1.18805707e-01  6.64649904e-02  4.25917543e-02  1.09532714e-01
  -8.92037526e-03  1.42678216e-01 -1.34229884e-01 -3.14831957e-02
   2.59483233e-03  1.32213280e-01 -2.21658126e-01  1.28576234e-01
  -6.77620098e-02 -8.94792750e-02  7.42293075e-02  4.55541164e-03
  -1.45655945e-01 -1.91417366e-01  1.12716584e-02  1.94721267e-01]
 [ 1.65535301e-01  2.65785158e-02 -1.16729707e-01  2.55277991e-01
  -1.89004485e-02  1.17910407e-01 -2.25753523e-02  1.11641902e-02
  -3.27374637e-02 -3.80583145e-02  1.85304701e-01  1.46810757e-02
  -1.02486961e-01 -1.37297049e-01 -6.04014285e-03 -5.00848889e-02
  -7.89987296e-03  4.65309322e-02  2.58486748e-01 -1.74660057e-01
   2.48558044e-01  9.09590721e-02 -1.26640368e-02  1.37359396e-01
   6.14502244e-02 -9.03795660e-02 -4.81729917e-02  7.10037723e-02
  -5.48853315e-02  7.10819885e-02 -9.89128649e-03 -6.22452050e-03
   2.38758847e-01 -3.03809047e-01  1.41577214e-01  4.03003097e-02
  -3.49529497e-02 -8.15867335e-02 -1.10024288e-01 -1.07218295e-01
   1.71908066e-01  3.60570353e-04  4.90429848e-02  2.17737213e-01
   1.41755700e-01 -2.45541871e-01 -5.94178736e-02  7.00037321e-03
   5.60484082e-02 -5.19752614e-02 -1.28735211e-02  1.39053226e-01
   1.83971003e-01  2.79183596e-01 -1.04075568e-02 -1.42881036e-01
   2.56889492e-01 -1.18460119e-01  9.87445191e-02 -2.12681830e-01
   2.59505093e-01 -4.78641354e-02  1.65265858e-01  2.81997949e-01
   1.30969048e-01  1.51859105e-01  1.42502144e-01 -1.17212772e-01
   8.13175961e-02 -1.01571247e-01 -2.32218012e-01  5.36912084e-02
   6.26256913e-02  1.67251989e-01 -8.11560079e-02  9.86543596e-02
  -2.62051523e-02 -7.59441964e-03  2.30223998e-01  1.15154684e-02
   8.65806639e-02 -1.57508150e-01 -1.80369332e-01  1.46119282e-01
   4.27065976e-02  1.61515325e-01 -2.48774871e-01  2.21106872e-01
   1.02712899e-01  5.86247146e-02  1.63250994e-02  1.46051580e-02
   1.20675772e-01  1.36765093e-01 -1.82272539e-01 -1.93516389e-01
   1.38493031e-01 -1.00413628e-01 -5.77294342e-02 -1.19200736e-01
   5.32871038e-02 -1.92201883e-01 -5.97248375e-02 -7.42969066e-02
   4.78255600e-02 -3.96129712e-02  3.03559261e-03 -2.96068460e-01
   2.67862707e-01  9.41885114e-02 -1.88934915e-02  1.50982030e-02
  -7.72310197e-02 -5.00343703e-02 -3.19968835e-02 -6.43919734e-03
   3.02063189e-02  2.11400669e-02 -1.56265929e-01 -4.05867063e-02
  -4.89356443e-02 -6.08692728e-02  1.45775139e-01 -1.06643572e-01
  -4.68116477e-02 -4.85675260e-02 -5.36299311e-02  1.98219866e-01]
 [ 2.10161433e-02 -3.65807526e-02  5.57761732e-03  2.66738504e-01
   3.98746952e-02  1.20037809e-01 -5.10274395e-02  2.79012378e-02
  -1.62599459e-01  6.59161806e-02  2.07037017e-01  3.13280486e-02
   2.74591148e-01 -1.88386664e-01  5.06623276e-02  9.38758627e-02
  -3.39102708e-02  5.06364554e-02  1.11699127e-01 -1.11028202e-01
   9.07026306e-02 -7.78203271e-03 -8.52340460e-02 -6.01077974e-02
   1.00010661e-02 -3.70881706e-02 -1.66166201e-01  4.29238304e-02
   2.21475735e-02 -1.36629324e-02 -1.17045276e-01 -5.63625358e-02
   1.66510090e-01 -1.99630722e-01  3.24410833e-02  1.84772536e-03
   3.08199152e-02  1.28461376e-01 -4.72345725e-02 -1.21236637e-01
   2.99925297e-01  2.90403701e-02  1.97573423e-01  1.51930735e-01
  -1.89857841e-01 -2.40492135e-01  5.59077971e-02 -2.13538092e-02
  -1.00225262e-01  7.94558078e-02 -6.64217323e-02  2.61801668e-02
   2.82298952e-01  2.46305957e-01  1.16628036e-01 -5.80697395e-02
   2.44690746e-01  1.48307189e-01  1.38798788e-01 -6.90952614e-02
   2.29407743e-01  4.02586572e-02  7.46005177e-02  1.87894344e-01
   1.30026385e-01 -1.71330810e-01  6.41381368e-02 -2.80234694e-01
   1.47323580e-02 -1.50526986e-01  9.81005430e-02  2.14614347e-02
   1.19931035e-01  1.85497046e-01 -2.72184033e-02 -2.38913789e-01
  -6.65339008e-02 -9.15427972e-03  1.22236021e-01  2.91207612e-01
  -1.45483181e-01 -1.45440549e-01 -6.22669980e-02  1.13325585e-02
  -2.95352954e-02  1.78327352e-01 -2.30325788e-01  1.52161747e-01
   9.29200277e-02  1.57473803e-01 -5.51685132e-03 -9.46519803e-03
   3.09020251e-01  2.36122936e-01 -5.63103370e-02  7.59182647e-02
   2.01925620e-01 -1.47729889e-01 -5.98083287e-02  1.73292696e-01
   9.23781916e-02 -1.98363200e-01  2.75875002e-01  5.48965745e-02
   7.97263160e-02  7.34388232e-02 -5.86033985e-02 -1.25836641e-01
   2.12932527e-01  2.25202709e-01  1.26535101e-02  2.12575588e-02
  -2.39369527e-01 -7.65435398e-02  6.98757991e-02 -5.73709607e-02
  -1.66037247e-01  6.73224404e-02  2.34699994e-02  1.57712653e-01
   1.58970714e-01  1.54838920e-01  2.75636435e-01 -1.49873244e-02
   3.40134315e-02 -1.68537661e-01 -2.70426869e-01  2.20234290e-01]
 [-9.63807628e-02  1.46854296e-02 -7.34934062e-02  1.10443853e-01
  -9.63071138e-02  1.30435780e-01  1.90746441e-01 -1.15011586e-02
  -2.00663671e-01  2.33609200e-01  1.24776468e-01 -2.48040203e-02
   2.23496720e-01 -1.76640823e-01  1.26405343e-01 -1.09852120e-01
   2.03773081e-02  2.80016437e-02  1.41223550e-01  3.32552381e-02
   4.16758619e-02 -2.07439018e-03 -2.94202082e-02  5.20493537e-02
  -8.48064348e-02 -1.56844072e-02 -1.03105113e-01  1.20110959e-02
  -8.50918666e-02 -4.54992205e-02  2.93937996e-02  1.10519929e-02
   2.39766285e-01 -2.70384520e-01 -5.52012958e-02  2.14383140e-01
